{"learner":{"attributes":{},"feature_names":["feature_00","feature_01","feature_02","feature_03","feature_04","feature_05","feature_06","feature_07","feature_08","feature_09","feature_10","feature_11","feature_12","feature_13","feature_14"],"feature_types":[],"gradient_booster":{"model":{"cats":{"enc":[],"feature_segments":[],"sorted_idx":[]},"gbtree_model_param":{"num_parallel_tree":"1","num_trees":"80"},"iteration_indptr":[0,1,2,3,4,5,6,7,8,9,10,11,12,13,14,15,16,17,18,19,20,21,22,23,24,25,26,27,28,29,30,31,32,33,34,35,36,37,38,39,40,41,42,43,44,45,46,47,48,49,50,51,52,53,54,55,56,57,58,59,60,61,62,63,64,65,66,67,68,69,70,71,72,73,74,75,76,77,78,79,80],"tree_info":[0,0,0,0,0,0,0,0,0,0,0,0,0,0,0,0,0,0,0,0,0,0,0,0,0,0,0,0,0,0,0,0,0,0,0,0,0,0,0,0,0,0,0,0,0,0,0,0,0,0,0,0,0,0,0,0,0,0,0,0,0,0,0,0,0,0,0,0,0,0,0,0,0,0,0,0,0,0,0,0],"trees":[{"base_weights":[-1.535983E-7,5.3279257E-1,-2.0882063E-2,2.0526193E-1,-1.6670826E-1,5.243702E-1,-5.7119433E-2,4.5331752E-1,-1.9262718E-1,-8.968111E-2,2.3137242E-1,4.3779865E-1,-3.7954867E-2,-1.7588669E-1,-2.9704018E-2],"categories":[],"categories_nodes":[],"categories_segments":[],"categories_sizes":[],"default_left":[0,0,0,0,0,0,0,0,0,0,0,0,0,0,0],"id":0,"left_children":[1,-1,3,5,7,9,11,-1,13,-1,-1,-1,-1,-1,-1],"loss_changes":[9.082035E0,0E0,8.016373E0,8.012548E0,6.7142525E0,8.994242E0,5.785528E0,0E0,5.3351555E0,0E0,0E0,0E0,0E0,0E0,0E0],"parents":[2147483647,0,0,2,2,3,3,4,4,5,5,6,6,8,8],"right_children":[2,-1,4,6,8,10,12,-1,14,-1,-1,-1,-1,-1,-1],"split_conditions":[-7.5306664E0,5.3279257E-1,3.7588413E1,-1.6055961E-1,7.9818785E-1,2.134561E1,-3.9018009E0,4.5331752E-1,1.7944866E1,-8.968111E-2,2.3137242E-1,4.3779865E-1,-3.7954867E-2,-1.7588669E-1,-2.9704018E-2],"split_indices":[2,0,7,0,6,4,1,0,3,0,0,0,0,0,0],"split_type":[0,0,0,0,0,0,0,0,0,0,0,0,0,0,0],"sum_hessian":[2.4289282E2,1.8459854E0,2.4104683E2,9.433957E1,1.4670726E2,4.2117615E1,5.222196E1,1.3601998E0,1.4534706E2,9.667134E0,3.245048E1,1.4087783E0,5.081318E1,2.6912525E1,1.1843454E2],"tree_param":{"num_deleted":"0","num_feature":"15","num_nodes":"15","size_leaf_vector":"1"}},{"base_weights":[-2.1457355E-3,4.501367E-2,-5.430576E-1,-2.8725976E-1,1.2311829E-1,1.5740146E-1,-8.359081E-1,9.5700413E-1,-3.7117517E-1,8.162301E-1,4.3961417E-2,-6.159768E-1,3.9514452E-1,-1.0344454E-1,-2.893012E-1,-9.833294E-3,4.4185516E-1,3.887909E-2,-1.9178145E-1,7.503299E-1,5.305432E-2,8.582996E-2,-5.032174E-2,-8.39248E-3,-2.3079589E-1,1.392401E-1,-1.7256936E-1],"categories":[],"categories_nodes":[],"categories_segments":[],"categories_sizes":[],"default_left":[0,0,0,1,0,1,0,0,0,0,0,0,0,0,0,0,0,0,0,0,0,0,0,0,0,0,0],"id":1,"left_children":[1,3,5,7,9,11,13,15,17,19,21,23,-1,25,-1,-1,-1,-1,-1,-1,-1,-1,-1,-1,-1,-1,-1],"loss_changes":[6.2520056E0,5.886963E0,4.163242E0,4.867272E0,1.0018778E1,6.7633657E0,1.2189293E0,1.5849698E0,5.614675E0,1.9732265E1,8.533498E0,3.9888132E-1,0E0,1.1269221E0,0E0,0E0,0E0,0E0,0E0,0E0,0E0,0E0,0E0,0E0,0E0,0E0,0E0],"parents":[2147483647,0,0,1,1,2,2,3,3,4,4,5,5,6,6,7,7,8,8,9,9,10,10,11,11,13,13],"right_children":[2,4,6,8,10,12,14,16,18,20,22,24,-1,26,-1,-1,-1,-1,-1,-1,-1,-1,-1,-1,-1,-1,-1],"split_conditions":[9.6963684E1,1.9545801E1,1E0,-8.269388E0,2.7278646E1,1.1580739E0,-1.7148849E0,5.556665E1,3.1684423E1,2.539018E1,4.682561E1,3.3215492E1,3.9514452E-1,2.868819E1,-2.893012E-1,-9.833294E-3,4.4185516E-1,3.887909E-2,-1.9178145E-1,7.503299E-1,5.305432E-2,8.582996E-2,-5.032174E-2,-8.39248E-3,-2.3079589E-1,1.392401E-1,-1.7256936E-1],"split_indices":[5,3,8,2,3,2,1,7,7,6,4,3,0,4,0,0,0,0,0,0,0,0,0,0,0,0,0],"split_type":[0,0,0,0,0,0,0,0,0,0,0,0,0,0,0,0,0,0,0,0,0,0,0,0,0,0,0],"sum_hessian":[2.4313109E2,2.2447685E2,1.8654234E1,4.2213577E1,1.8226328E2,5.6360574E0,1.3018176E1,2.0097294E0,4.0203846E1,1.7727402E1,1.6453587E2,3.6625514E0,1.9735062E0,2.2114105E0,1.0806766E1,1.0093994E0,1.00033E0,1.4198789E1,2.6005058E1,4.075665E0,1.3651738E1,7.6586494E1,8.794939E1,1.0021566E0,2.6603947E0,1.0111626E0,1.2002478E0],"tree_param":{"num_deleted":"0","num_feature":"15","num_nodes":"27","size_leaf_vector":"1"}},{"base_weights":[-8.829291E-3,5.700472E-1,-4.4038314E-2,9.752574E-1,-5.8016276E-1,3.305782E-2,-2.7718046E-1,1.5681255E0,-1.7601441E-1,-2.2082202E-1,-1.2248993E-2,3.5406178E-1,-6.045849E-2,7.26208E-1,-3.4493533E-1,1.0183854E-3,6.334499E-1,2.856557E-1,-2.2860156E-1,5.6243226E-2,4.82092E-1,1.40799135E-2,-1.3892625E-1,-6.964117E-2,4.2138815E-1,-1.00602005E-2,-1.6314843E-1],"categories":[],"categories_nodes":[],"categories_segments":[],"categories_sizes":[],"default_left":[0,0,0,0,0,0,0,0,0,0,0,0,0,0,0,0,0,0,0,0,0,0,0,0,0,0,0],"id":2,"left_children":[1,3,5,7,9,11,13,15,17,-1,-1,19,21,23,25,-1,-1,-1,-1,-1,-1,-1,-1,-1,-1,-1,-1],"loss_changes":[5.0217743E0,7.1504693E0,4.179702E0,7.6614494E0,3.321557E-1,5.282567E0,4.177735E0,6.151249E0,3.7515774E0,0E0,0E0,7.981567E0,5.927119E0,2.9111302E0,3.3752513E0,0E0,0E0,0E0,0E0,0E0,0E0,0E0,0E0,0E0,0E0,0E0,0E0],"parents":[2147483647,0,0,1,1,2,2,3,3,4,4,5,5,6,6,7,7,8,8,11,11,12,12,13,13,14,14],"right_children":[2,4,6,8,10,12,14,16,18,-1,-1,20,22,24,26,-1,-1,-1,-1,-1,-1,-1,-1,-1,-1,-1,-1],"split_conditions":[-1.7059591E0,3E0,3E0,1.8697662E0,6.7390915E1,-1.4942055E0,5.8531737E0,1E0,1.8500975E1,-2.2082202E-1,-1.2248993E-2,1.3451476E0,8.3099144E1,5.4489216E1,3.5744797E1,1.0183854E-3,6.334499E-1,2.856557E-1,-2.2860156E-1,5.6243226E-2,4.82092E-1,1.40799135E-2,-1.3892625E-1,-6.964117E-2,4.2138815E-1,-1.00602005E-2,-1.6314843E-1],"split_indices":[0,14,12,2,6,1,3,9,6,0,0,0,5,7,7,0,0,0,0,0,0,0,0,0,0,0,0],"split_type":[0,0,0,0,0,0,0,0,0,0,0,0,0,0,0,0,0,0,0,0,0,0,0,0,0,0,0],"sum_hessian":[2.44155E2,1.3127847E1,2.3102716E2,9.820326E0,3.3075209E0,1.7426042E2,5.676674E1,6.2431984E0,3.577128E0,2.2828176E0,1.0247033E0,3.868483E1,1.3557559E2,2.9760444E0,5.3790695E1,1.8685791E0,4.374619E0,1.0092045E0,2.5679233E0,3.5159706E1,3.525124E0,1.0772578E2,2.7849808E1,1.5061957E0,1.4698486E0,2.1420992E1,3.23697E1],"tree_param":{"num_deleted":"0","num_feature":"15","num_nodes":"27","size_leaf_vector":"1"}},{"base_weights":[-1.1113292E-2,-9.043961E-2,2.2243048E-1,-1.2136244E-1,9.1633713E-1,-4.9615687E-1,3.9695287E-1,-1.8050458E-1,3.3751792E-1,5.449101E-1,-1.7090257E-1,4.1786855E-1,-7.5502217E-1,9.526044E-1,2.4821976E-2,-1.7383105E-1,-2.9642595E-2,7.7405465E-1,-1.3174594E-3,1.3293837E-1,-1.8534786E-1,-1.856819E-1,4.360912E-1,6.5174415E-3,-2.7859485E-1,-8.514013E-3,4.3350786E-1,1.9943024E-1,-1.3763979E-1],"categories":[],"categories_nodes":[],"categories_segments":[],"categories_sizes":[],"default_left":[0,0,0,0,0,0,0,0,0,0,0,0,0,1,0,0,0,0,0,0,0,0,0,0,0,0,0,0,0],"id":3,"left_children":[1,3,5,7,9,11,13,15,17,-1,19,21,23,25,27,-1,-1,-1,-1,-1,-1,-1,-1,-1,-1,-1,-1,-1,-1],"loss_changes":[4.563724E0,5.832779E0,8.031488E0,4.923945E0,5.7839756E0,3.309089E0,1.0484579E1,5.137192E0,1.5965288E1,0E0,1.2198015E0,4.58974E0,1.3979373E0,9.874544E0,1.0042439E1,0E0,0E0,0E0,0E0,0E0,0E0,0E0,0E0,0E0,0E0,0E0,0E0,0E0,0E0],"parents":[2147483647,0,0,1,1,2,2,3,3,4,4,5,5,6,6,7,7,8,8,10,10,11,11,12,12,13,13,14,14],"right_children":[2,4,6,8,10,12,14,16,18,-1,20,22,24,26,28,-1,-1,-1,-1,-1,-1,-1,-1,-1,-1,-1,-1,-1,-1],"split_conditions":[3E0,9.739977E1,2.1397635E1,8.89356E1,4.57103E1,2.0574926E1,3.5340797E1,1.5035574E1,-4.194294E0,5.449101E-1,5.3131042E1,4.8146492E1,1E0,3.1471209E1,5.0952946E1,-1.7383105E-1,-2.9642595E-2,7.7405465E-1,-1.3174594E-3,1.3293837E-1,-1.8534786E-1,-1.856819E-1,4.360912E-1,6.5174415E-3,-2.7859485E-1,-8.514013E-3,4.3350786E-1,1.9943024E-1,-1.3763979E-1],"split_indices":[8,6,3,4,4,4,7,7,2,0,3,6,10,5,3,0,0,0,0,0,0,0,0,0,0,0,0,0,0],"split_type":[0,0,0,0,0,0,0,0,0,0,0,0,0,0,0,0,0,0,0,0,0,0,0,0,0,0,0,0,0],"sum_hessian":[2.4425351E2,1.8278189E2,6.1471607E1,1.7818835E2,4.5935454E0,1.1652024E1,4.981958E1,1.5838214E2,1.9806213E1,2.1462402E0,2.4473052E0,2.4361188E0,9.215905E0,1.9356834E1,3.0462748E1,2.5885782E1,1.3249635E2,1.7541223E0,1.805209E1,1.0344974E0,1.4128078E0,1.418565E0,1.0175539E0,1.8435209E0,7.3723845E0,6.784122E0,1.2572712E1,1.2950976E1,1.7511772E1],"tree_param":{"num_deleted":"0","num_feature":"15","num_nodes":"29","size_leaf_vector":"1"}},{"base_weights":[-1.4443766E-2,1.1509462E-1,-1.3037768E-1,4.259937E-3,7.2931623E-1,1.3926569E-1,-3.504042E-1,1.0903271E0,-8.235043E-2,1.4331891E-2,1.3558007E0,-3.4284505E-1,3.235431E-1,1.7298748E-1,-5.681243E-1,-9.648346E-2,4.7830325E-1,-1.3256194E-1,2.4340037E-2,1.3957678E-1,-2.3554735E-1,5.9940755E-1,-1.311948E-1,1.0232619E-1,-1.9145764E-1,5.2458655E-2,3.9478445E-1,2.1473597E-1,-8.118513E-2,-2.2096507E-1,2.2817774E-2],"categories":[],"categories_nodes":[],"categories_segments":[],"categories_sizes":[],"default_left":[0,0,0,0,0,0,1,1,0,0,0,0,0,0,1,0,0,0,0,0,0,0,0,0,0,0,0,0,0,0,0],"id":4,"left_children":[1,3,5,7,9,11,13,15,17,19,21,23,25,27,29,-1,-1,-1,-1,-1,-1,-1,-1,-1,-1,-1,-1,-1,-1,-1,-1],"loss_changes":[3.6996071E0,7.9214764E0,7.7580514E0,9.460298E0,7.948453E0,5.3617587E0,8.284469E0,5.798604E0,5.5132017E0,3.7245588E0,1.1779575E1,3.6171665E0,6.1549864E0,5.4599586E0,5.5858517E0,0E0,0E0,0E0,0E0,0E0,0E0,0E0,0E0,0E0,0E0,0E0,0E0,0E0,0E0,0E0,0E0],"parents":[2147483647,0,0,1,1,2,2,3,3,4,4,5,5,6,6,7,7,8,8,9,9,10,10,11,11,12,12,13,13,14,14],"right_children":[2,4,6,8,10,12,14,16,18,20,22,24,26,28,30,-1,-1,-1,-1,-1,-1,-1,-1,-1,-1,-1,-1,-1,-1,-1,-1],"split_conditions":[4.9211674E1,8.5983345E1,4.3577065E1,5.4791136E0,2E0,2.8963747E1,1E0,1E0,1.4663327E1,3E0,3.8737148E-1,-5.2357596E-1,2.4298882E0,3.9319145E1,8.740994E1,-9.648346E-2,4.7830325E-1,-1.3256194E-1,2.4340037E-2,1.3957678E-1,-2.3554735E-1,5.9940755E-1,-1.311948E-1,1.0232619E-1,-1.9145764E-1,5.2458655E-2,3.9478445E-1,2.1473597E-1,-8.118513E-2,-2.2096507E-1,2.2817774E-2],"split_indices":[5,4,4,6,10,3,13,13,5,9,0,0,1,3,5,0,0,0,0,0,0,0,0,0,0,0,0,0,0,0,0],"split_type":[0,0,0,0,0,0,0,0,0,0,0,0,0,0,0,0,0,0,0,0,0,0,0,0,0,0,0,0,0,0,0],"sum_hessian":[2.4434743E2,1.15406075E2,1.2894136E2,9.86177E1,1.678837E1,5.810298E1,7.083838E1,6.427682E0,9.219002E1,8.318099E0,8.470271E0,1.5829362E1,4.227362E1,2.0870903E1,4.996748E1,1.7860885E0,4.6415935E0,2.8284912E1,6.3905106E1,5.585726E0,2.732373E0,6.152435E0,2.3178368E0,4.7273693E0,1.1101992E1,3.7788406E1,4.485213E0,9.11011E0,1.1760793E1,3.9497276E1,1.0470201E1],"tree_param":{"num_deleted":"0","num_feature":"15","num_nodes":"31","size_leaf_vector":"1"}},{"base_weights":[-2.074785E-2,-5.6016874E-1,2.1393404E-3,1.983217E-1,-8.276578E-1,1.1838528E0,-1.8242948E-2,-2.771422E-1,-3.291711E-2,-3.703393E-2,5.334518E-1,1.3863328E-2,-4.710555E-1,-2.1480428E-1,9.872583E-3,7.289543E-2,-2.1390837E-1],"categories":[],"categories_nodes":[],"categories_segments":[],"categories_sizes":[],"default_left":[0,0,0,0,1,1,0,0,0,0,0,0,0,0,0,0,0],"id":5,"left_children":[1,3,5,-1,7,9,11,-1,-1,-1,-1,13,15,-1,-1,-1,-1],"loss_changes":[3.035258E0,3.8159883E0,5.7239447E0,0E0,4.9592543E-1,3.3501725E0,3.4043784E0,0E0,0E0,0E0,0E0,3.070834E0,2.851847E0,0E0,0E0,0E0,0E0],"parents":[2147483647,0,0,1,1,2,2,4,4,5,5,6,6,11,11,12,12],"right_children":[2,4,6,-1,8,10,12,-1,-1,-1,-1,14,16,-1,-1,-1,-1],"split_conditions":[3.4487586E0,1.6498236E1,4.678847E0,1.983217E-1,2.4498742E0,-1.8397615E0,9.6963684E1,-2.771422E-1,-3.291711E-2,-3.703393E-2,5.334518E-1,6.803731E0,2.36401E1,-2.1480428E-1,9.872583E-3,7.289543E-2,-2.1390837E-1],"split_indices":[7,5,7,0,2,2,5,0,0,0,0,7,6,0,0,0,0],"split_type":[0,0,0,0,0,0,0,0,0,0,0,0,0,0,0,0,0],"sum_hessian":[2.4475584E2,9.006615E0,2.3574924E2,1.3538971E0,7.652717E0,3.029408E0,2.3271983E2,6.4959836E0,1.1567335E0,1.1944088E0,1.8349992E0,2.1821675E2,1.4503082E1,4.6186733E0,2.1359807E2,3.669756E0,1.0833325E1],"tree_param":{"num_deleted":"0","num_feature":"15","num_nodes":"17","size_leaf_vector":"1"}},{"base_weights":[-1.769551E-2,1.6953555E-1,-7.647253E-2,5.096749E-2,1.3070946E0,-6.852741E-1,-3.8773168E-2,-6.976574E-2,9.8211235E-1,8.8189286E-1,-4.5210615E-2,2.8177294E-1,-2.8112188E-1,6.635489E-2,-2.678216E-1,-7.951948E-2,1.148178E-1,4.2226994E-1,-1.6776735E-1,-2.1122105E-1,2.8890064E-1,-1.6067928E-1,2.8827703E-1,4.2772353E-2,-1.0908259E-1,4.4780573E-1,-1.0994168E-1],"categories":[],"categories_nodes":[],"categories_segments":[],"categories_sizes":[],"default_left":[0,0,0,0,0,0,0,0,0,0,0,1,0,1,0,0,0,0,0,0,0,0,0,0,0,0,0],"id":6,"left_children":[1,3,5,7,9,11,13,15,17,-1,19,21,-1,23,25,-1,-1,-1,-1,-1,-1,-1,-1,-1,-1,-1,-1],"loss_changes":[2.7088008E0,7.8695035E0,4.2682867E0,6.175835E0,1.2304768E1,2.9065204E0,4.2864757E0,4.433766E0,4.9196477E0,0E0,3.335338E0,2.1859682E0,0E0,4.060092E0,1.0267205E1,0E0,0E0,0E0,0E0,0E0,0E0,0E0,0E0,0E0,0E0,0E0,0E0],"parents":[2147483647,0,0,1,1,2,2,3,3,4,4,5,5,6,6,7,7,8,8,10,10,11,11,13,13,14,14],"right_children":[2,4,6,8,10,12,14,16,18,-1,20,22,-1,24,26,-1,-1,-1,-1,-1,-1,-1,-1,-1,-1,-1,-1],"split_conditions":[-1.4942055E0,5.2748165E0,-1.2156199E0,1.3451476E0,-3.8387474E-1,1.7824274E1,3.8737148E-1,-1.9814738E0,3E0,8.8189286E-1,6.1489986E1,8.0881107E-1,-2.8112188E-1,8.3099144E1,-1.0879668E0,-7.951948E-2,1.148178E-1,4.2226994E-1,-1.6776735E-1,-2.1122105E-1,2.8890064E-1,-1.6067928E-1,2.8827703E-1,4.2772353E-2,-1.0908259E-1,4.4780573E-1,-1.0994168E-1],"split_indices":[1,2,1,0,0,6,0,1,14,0,5,2,0,5,1,0,0,0,0,0,0,0,0,0,0,0,0],"split_type":[0,0,0,0,0,0,0,0,0,0,0,0,0,0,0,0,0,0,0,0,0,0,0,0,0,0,0],"sum_hessian":[2.4396725E2,5.78392E1,1.8612807E2,5.3325836E1,4.513361E0,9.852011E0,1.7627605E2,4.8024063E1,5.301775E0,1.5130069E0,3.000354E0,2.0107138E0,7.8412967E0,1.21308495E2,5.4967556E1,3.383486E1,1.41891985E1,4.2229156E0,1.0788596E0,1.9969966E0,1.0033574E0,1.0084256E0,1.0022882E0,1.0360996E2,1.7698532E1,2.1668684E0,5.2800686E1],"tree_param":{"num_deleted":"0","num_feature":"15","num_nodes":"27","size_leaf_vector":"1"}},{"base_weights":[-1.593051E-2,6.7879957E-1,-2.8946843E-2,-9.720457E-2,4.2775908E-1,-4.71441E-3,-4.2136875E-1,1.3564436E-1,-1.6997136E-1,-2.3032814E-1,7.5602513E-3,5.8198464E-1,-7.0108193E-1,-3.9989054E-2,2.070506E-2,-1.7622878E-1,4.1679874E-1,1.3935098E-1,-2.5812683E-1],"categories":[],"categories_nodes":[],"categories_segments":[],"categories_sizes":[],"default_left":[0,0,0,0,0,0,0,0,0,0,1,0,0,0,0,0,0,0,0],"id":7,"left_children":[1,3,5,7,-1,9,11,-1,-1,-1,13,15,17,-1,-1,-1,-1,-1,-1],"loss_changes":[2.2255235E0,2.7631228E0,2.2841425E0,1.0701374E0,0E0,2.1360195E0,4.328929E0,0E0,0E0,0E0,1.9554424E0,4.2074933E0,2.5129752E0,0E0,0E0,0E0,0E0,0E0,0E0],"parents":[2147483647,0,0,1,1,2,2,3,3,5,5,6,6,10,10,11,11,12,12],"right_children":[2,4,6,8,-1,10,12,-1,-1,-1,14,16,18,-1,-1,-1,-1,-1,-1],"split_conditions":[-4.5381546E0,4.1582662E-1,1.607915E0,-5.7031405E-1,4.2775908E-1,1.2049923E0,-1.9814738E0,1.3564436E-1,-1.6997136E-1,-2.3032814E-1,2.7632692E1,2E0,1.3387709E1,-3.9989054E-2,2.070506E-2,-1.7622878E-1,4.1679874E-1,1.3935098E-1,-2.5812683E-1],"split_indices":[1,0,0,0,0,4,1,0,0,0,5,9,3,0,0,0,0,0,0],"split_type":[0,0,0,0,0,0,0,0,0,0,0,0,0,0,0,0,0,0,0],"sum_hessian":[2.4293605E2,3.5271862E0,2.3940886E2,2.1567605E0,1.3704258E0,2.264381E2,1.2970758E1,1.0106124E0,1.1461481E0,2.610488E0,2.2382762E2,2.5920875E0,1.0378672E1,6.763677E1,1.5619084E2,1.1699065E0,1.422181E0,1.0178554E0,9.360816E0],"tree_param":{"num_deleted":"0","num_feature":"15","num_nodes":"19","size_leaf_vector":"1"}},{"base_weights":[-1.2708975E-2,8.1436805E-2,-1.0343559E-1,-8.7947035E-3,5.3290856E-1,8.202766E-1,-1.6103955E-1,3.8356856E-2,-2.5742185E-1,1.217825E0,-1.4370741E-1,1.5379891E0,-4.5928374E-1,-7.050059E-2,-5.3686714E-1,-1.2684272E-1,3.4248196E-2,-4.23269E-3,5.900725E-1,1.6434702E-1,-1.8503463E-1,6.6126776E-1,-5.266668E-2,-1.0524181E-2,-1.869527E-1,-4.042369E-2,3.2967457E-1,1.258371E-1,-2.4957643E-1],"categories":[],"categories_nodes":[],"categories_segments":[],"categories_sizes":[],"default_left":[0,0,0,0,0,0,0,0,0,0,0,0,0,0,0,0,0,0,0,0,0,0,0,0,0,0,0,0,0],"id":8,"left_children":[1,3,5,7,9,11,13,15,-1,17,19,21,23,25,27,-1,-1,-1,-1,-1,-1,-1,-1,-1,-1,-1,-1,-1,-1],"loss_changes":[2.0829656E0,4.883027E0,6.736727E0,4.068978E0,9.426531E0,7.548438E0,3.9662733E0,3.4197898E0,0E0,9.2802925E0,3.9158723E0,6.098569E0,2.1780652E-1,7.359039E0,6.752418E0,0E0,0E0,0E0,0E0,0E0,0E0,0E0,0E0,0E0,0E0,0E0,0E0,0E0,0E0],"parents":[2147483647,0,0,1,1,2,2,3,3,4,4,5,5,6,6,7,7,9,9,10,10,11,11,12,12,13,13,14,14],"right_children":[2,4,6,8,10,12,14,16,-1,18,20,22,24,26,28,-1,-1,-1,-1,-1,-1,-1,-1,-1,-1,-1,-1,-1,-1],"split_conditions":[4.682561E1,3.8662888E1,6.006499E0,6.00001E0,-1.6055961E-1,2E0,8.144103E1,1.306547E1,-2.5742185E-1,2E0,3.2931286E1,1.8697662E0,6.9190384E1,7.768798E1,-2.376828E0,-1.2684272E-1,3.4248196E-2,-4.23269E-3,5.900725E-1,1.6434702E-1,-1.8503463E-1,6.6126776E-1,-5.266668E-2,-1.0524181E-2,-1.869527E-1,-4.042369E-2,3.2967457E-1,1.258371E-1,-2.4957643E-1],"split_indices":[4,4,5,13,0,14,6,7,0,11,7,2,4,6,2,0,0,0,0,0,0,0,0,0,0,0,0,0,0],"split_type":[0,0,0,0,0,0,0,0,0,0,0,0,0,0,0,0,0,0,0,0,0,0,0,0,0,0,0,0,0],"sum_hessian":[2.4187718E2,1.1875211E2,1.2312508E2,9.978877E1,1.8963343E1,6.450336E0,1.16674736E2,9.5444565E1,4.3442054E0,9.026367E0,9.936976E0,4.0030413E0,2.447295E0,9.4980896E1,2.1693836E1,1.2827642E1,8.261693E1,3.7841537E0,5.2422132E0,3.972318E0,5.9646583E0,2.676174E0,1.3268672E0,1.0203526E0,1.4269423E0,9.087331E1,4.107597E0,5.0156345E0,1.6678204E1],"tree_param":{"num_deleted":"0","num_feature":"15","num_nodes":"29","size_leaf_vector":"1"}},{"base_weights":[-1.6332773E-2,4.2736534E-2,-1.6420107E-1,1.30232E-1,-1.9109638E-1,-2.6287684E-1,4.5278826E-1,-3.3267984E-1,2.08984E-1,-2.835663E-1,5.7514596E-1,-4.205285E-1,1.3421904E-1,-1.9290093E-2,6.2695694E-1,2.9977545E-1,-1.4854914E-1,-2.6795536E-1,7.810973E-2,2.6167157E-1,-9.98142E-2,3.373624E-1,-1.0284643E-1,-1.569928E-1,1.14609554E-1,2.3321384E-1,-1.2101932E-1,2.8676102E-1,-1.6922338E-1],"categories":[],"categories_nodes":[],"categories_segments":[],"categories_sizes":[],"default_left":[0,0,0,0,0,0,0,0,0,0,0,0,0,0,0,0,0,0,0,0,0,0,0,0,0,0,0,0,0],"id":9,"left_children":[1,3,5,7,9,11,13,15,17,19,21,23,25,27,-1,-1,-1,-1,-1,-1,-1,-1,-1,-1,-1,-1,-1,-1,-1],"loss_changes":[2.1286042E0,3.5921216E0,4.352787E0,4.7166867E0,3.555713E0,3.8492332E0,7.7342095E0,4.589285E0,6.4368825E0,2.7552803E0,3.1524184E0,3.797172E0,6.5290413E0,5.170729E0,0E0,0E0,0E0,0E0,0E0,0E0,0E0,0E0,0E0,0E0,0E0,0E0,0E0,0E0,0E0],"parents":[2147483647,0,0,1,1,2,2,3,3,4,4,5,5,6,6,7,7,8,8,9,9,10,10,11,11,12,12,13,13],"right_children":[2,4,6,8,10,12,14,16,18,20,22,24,26,28,-1,-1,-1,-1,-1,-1,-1,-1,-1,-1,-1,-1,-1,-1,-1],"split_conditions":[7.008545E1,7.265283E1,8.491343E1,1.4663327E1,1.18189E0,3E0,9.531423E1,-1.8284059E0,2.8727133E0,1.2328686E0,1.607915E0,8.970979E1,-6.194216E-1,1E0,6.2695694E-1,2.9977545E-1,-1.4854914E-1,-2.6795536E-1,7.810973E-2,2.6167157E-1,-9.98142E-2,3.373624E-1,-1.0284643E-1,-1.569928E-1,1.14609554E-1,2.3321384E-1,-1.2101932E-1,2.8676102E-1,-1.6922338E-1],"split_indices":[3,7,7,5,0,8,3,0,6,6,0,4,1,11,0,0,0,0,0,0,0,0,0,0,0,0,0,0,0],"split_type":[0,0,0,0,0,0,0,0,0,0,0,0,0,0,0,0,0,0,0,0,0,0,0,0,0,0,0,0,0],"sum_hessian":[2.4189796E2,1.7335744E2,6.8540535E1,1.2647583E2,4.68816E1,5.958498E1,8.955554E0,1.791941E1,1.0855642E2,4.2395275E1,4.486325E0,4.2609505E1,1.6975475E1,7.7181125E0,1.2374415E0,1.3884021E0,1.6531008E1,4.105601E0,1.0445082E2,1.0461313E0,4.1349144E1,2.6658206E0,1.8205042E0,3.8080616E1,4.5288863E0,7.526007E0,9.449469E0,2.4959087E0,5.2222037E0],"tree_param":{"num_deleted":"0","num_feature":"15","num_nodes":"29","size_leaf_vector":"1"}},{"base_weights":[-1.4948494E-2,2.332046E-1,-2.49846E-2,-4.4551975E-1,-7.1899206E-3,2.2171845E-1,-8.0529845E-1,1.0663875E0,-2.4635805E-2,-1.5209726E-2,-2.7384555E-1,4.6358126E-1,-2.0768713E-2,-1.2486086E-2,1.6081676E-1],"categories":[],"categories_nodes":[],"categories_segments":[],"categories_sizes":[],"default_left":[0,0,0,1,0,0,0,0,0,0,0,0,0,0,0],"id":10,"left_children":[1,-1,3,5,7,-1,9,11,13,-1,-1,-1,-1,-1,-1],"loss_changes":[1.943107E0,0E0,1.7917955E0,4.7382984E0,4.355527E0,0E0,5.975423E-1,2.1293092E0,2.1976392E0,0E0,0E0,0E0,0E0,0E0,0E0],"parents":[2147483647,0,0,2,2,3,3,4,4,6,6,7,7,8,8],"right_children":[2,-1,4,6,8,-1,10,12,14,-1,-1,-1,-1,-1,-1],"split_conditions":[-8.269388E0,2.332046E-1,3.9110184E0,1.7221767E1,4.678847E0,2.2171845E-1,1.5890748E1,-2.0346114E-1,9.770798E1,-1.5209726E-2,-2.7384555E-1,4.6358126E-1,-2.0768713E-2,-1.2486086E-2,1.6081676E-1],"split_indices":[2,0,7,5,7,0,3,0,6,0,0,0,0,0,0],"split_type":[0,0,0,0,0,0,0,0,0,0,0,0,0,0,0],"sum_hessian":[2.4092496E2,2.0572948E0,2.3886766E2,8.721397E0,2.3014627E2,1.7861705E0,6.935227E0,2.7186985E0,2.2742757E2,1.0484568E0,5.88677E0,1.6585599E0,1.0601385E0,2.2163943E2,5.788134E0],"tree_param":{"num_deleted":"0","num_feature":"15","num_nodes":"15","size_leaf_vector":"1"}},{"base_weights":[-9.378371E-3,-1.9980665E-1,2.9054107E-2,6.730104E-1,-2.8817734E-1,1.4162736E-1,-9.7275615E-2,4.4642588E-1,-1.7488743E-1,-6.771489E-1,-5.345593E-3,4.8637205E-1,-1.4700975E-2,1.130042E0,-1.3702643E-1,-2.3433404E-1,7.8934774E-2,3.2126802E-1,-4.5694E-2,9.19872E-2,6.4041185E-1,8.263996E-2,-1.1800417E-1,5.452256E-1,-2.3129893E-2,-1.4241286E-1,1.0833406E-2],"categories":[],"categories_nodes":[],"categories_segments":[],"categories_sizes":[],"default_left":[0,1,0,0,0,0,0,0,0,0,0,0,0,0,0,0,0,0,0,0,0,0,0,0,0,0,0],"id":11,"left_children":[1,3,5,7,9,11,13,-1,-1,15,17,19,21,23,25,-1,-1,-1,-1,-1,-1,-1,-1,-1,-1,-1,-1],"loss_changes":[1.7649182E0,3.3170485E0,2.8704228E0,4.9853487E0,4.1183844E0,5.7535605E0,4.8015385E0,0E0,0E0,1.7467442E0,3.753923E0,9.210293E0,8.2751E0,2.709219E0,5.4631367E0,0E0,0E0,0E0,0E0,0E0,0E0,0E0,0E0,0E0,0E0,0E0,0E0],"parents":[2147483647,0,0,1,1,2,2,3,3,4,4,5,5,6,6,9,9,10,10,11,11,12,12,13,13,14,14],"right_children":[2,4,6,8,10,12,14,-1,-1,16,18,20,22,24,26,-1,-1,-1,-1,-1,-1,-1,-1,-1,-1,-1,-1],"split_conditions":[1.9545801E1,5.420266E0,5.3552353E1,2E0,-5.7731634E-1,-6.416668E-1,-2.2052944E0,4.4642588E-1,-1.7488743E-1,1.7944866E1,7.6093974E0,-6.9941455E-1,6.1395763E1,1E0,-5.035696E-1,-2.3433404E-1,7.8934774E-2,3.2126802E-1,-4.5694E-2,9.19872E-2,6.4041185E-1,8.263996E-2,-1.1800417E-1,5.452256E-1,-2.3129893E-2,-1.4241286E-1,1.0833406E-2],"split_indices":[3,5,5,8,1,0,0,0,0,3,4,0,3,14,0,0,0,0,0,0,0,0,0,0,0,0,0],"split_type":[0,0,0,0,0,0,0,0,0,0,0,0,0,0,0,0,0,0,0,0,0,0,0,0,0,0,0],"sum_hessian":[2.3936095E2,3.949065E1,1.9987029E2,3.022486E0,3.6468166E1,1.05625565E2,9.424473E1,1.720885E0,1.3016008E0,1.4766283E1,2.1701883E1,3.229514E1,7.333042E1,2.0961883E0,9.214854E1,1.3448547E1,1.3177364E0,1.8521409E0,1.9849741E1,3.018909E1,2.1060498E0,4.1670002E1,3.1660423E1,1.013513E0,1.0826752E0,3.0642488E1,6.150605E1],"tree_param":{"num_deleted":"0","num_feature":"15","num_nodes":"27","size_leaf_vector":"1"}},{"base_weights":[-7.659954E-3,4.1674227E-2,-1.526931E-1,2.769061E-3,7.4407536E-1,-3.881302E-1,1.1007502E-1,1.014259E-1,-2.1947986E-1,-3.5582626E-1,1.9278125E0,-5.6892663E-1,3.0884072E-1,8.66884E-1,-1.9374616E-1,1.2353082E-2,4.1784465E-1,-2.207595E-1,-1.8429251E-2,-2.3572847E-1,9.172493E-2,7.9786426E-1,5.268136E-2,-6.1379503E-2,-2.7383098E-1,-1.663708E-1,3.1178722E-1,4.5264778E-1,-1.4231855E-1,-2.7115515E-1,3.1532377E-2],"categories":[],"categories_nodes":[],"categories_segments":[],"categories_sizes":[],"default_left":[0,0,0,0,0,0,0,0,0,0,0,0,1,0,0,0,0,0,0,0,0,0,0,0,0,0,0,0,0,0,0],"id":12,"left_children":[1,3,5,7,9,11,13,15,17,19,21,23,25,27,29,-1,-1,-1,-1,-1,-1,-1,-1,-1,-1,-1,-1,-1,-1,-1,-1],"loss_changes":[1.716545E0,4.8931613E0,3.809167E0,3.7659075E0,1.2921581E1,4.2498007E0,6.962469E0,9.196056E0,4.2645283E0,1.8659289E0,5.5361557E0,3.0733166E0,5.1850853E0,8.161309E0,4.7430882E0,0E0,0E0,0E0,0E0,0E0,0E0,0E0,0E0,0E0,0E0,0E0,0E0,0E0,0E0,0E0,0E0],"parents":[2147483647,0,0,1,1,2,2,3,3,4,4,5,5,6,6,7,7,8,8,9,9,10,10,11,11,12,12,13,13,14,14],"right_children":[2,4,6,8,10,12,14,16,18,20,22,24,26,28,30,-1,-1,-1,-1,-1,-1,-1,-1,-1,-1,-1,-1,-1,-1,-1,-1],"split_conditions":[1.2511826E0,1.0424316E0,5.203964E1,6.989941E1,4.89668E1,3.1962218E0,1E0,6.732056E1,7.690656E1,3.0544014E1,2.4960946E-1,2E0,-6.9563395E-1,5.3863163E1,2.327391E1,1.2353082E-2,4.1784465E-1,-2.207595E-1,-1.8429251E-2,-2.3572847E-1,9.172493E-2,7.9786426E-1,5.268136E-2,-6.1379503E-2,-2.7383098E-1,-1.663708E-1,3.1178722E-1,4.5264778E-1,-1.4231855E-1,-2.7115515E-1,3.1532377E-2],"split_indices":[1,1,6,5,6,1,8,5,5,6,0,11,2,3,7,0,0,0,0,0,0,0,0,0,0,0,0,0,0,0,0],"split_type":[0,0,0,0,0,0,0,0,0,0,0,0,0,0,0,0,0,0,0,0,0,0,0,0,0,0,0,0,0,0,0],"sum_hessian":[2.3801604E2,1.7813474E2,5.98813E1,1.6973714E2,8.397597E0,3.1331535E1,2.8549765E1,1.1793095E2,5.18062E1,4.715482E0,3.6821148E0,2.5023956E1,6.307578E0,7.6473036E0,2.0902462E1,1.13660095E2,4.2708535E0,1.1283686E1,4.052251E1,2.7443275E0,1.9711547E0,2.2321332E0,1.4499818E0,1.2924495E1,1.20994625E1,3.0010483E0,3.3065298E0,5.0874925E0,2.559811E0,5.591697E0,1.5310764E1],"tree_param":{"num_deleted":"0","num_feature":"15","num_nodes":"31","size_leaf_vector":"1"}},{"base_weights":[-1.3061051E-2,1.4803387E-2,-2.8898832E-1,2.1801454E-3,7.2095525E-1,1.1950442E-1,-7.707622E-1,1.270088E-1,-9.205485E-2,-1.754786E-1,4.6160874E-1,-4.1506284E-1,6.012566E-1,-2.7840716E-1,-2.1922673E-1,-4.282608E-2,9.357697E-2,-1.3338062E-1,9.583969E-3,1.4042829E-1,-2.5862733E-1,-1.7118505E-1,2.782802E-1,1.355268E-1,-1.9795741E-1],"categories":[],"categories_nodes":[],"categories_segments":[],"categories_sizes":[],"default_left":[0,0,1,0,0,0,0,1,0,0,0,0,0,0,0,0,0,0,0,0,0,0,0,0,0],"id":13,"left_children":[1,3,5,7,9,11,13,15,17,-1,-1,19,21,-1,23,-1,-1,-1,-1,-1,-1,-1,-1,-1,-1],"loss_changes":[1.8445369E0,1.9447646E0,4.4222183E0,2.546858E0,4.9917216E0,3.5388603E0,6.838479E-1,4.6900883E0,5.408233E0,0E0,0E0,3.0273557E0,3.2547376E0,0E0,1.3562523E0,0E0,0E0,0E0,0E0,0E0,0E0,0E0,0E0,0E0,0E0],"parents":[2147483647,0,0,1,1,2,2,3,3,4,4,5,5,6,6,7,7,8,8,11,11,12,12,14,14],"right_children":[2,4,6,8,10,12,14,16,18,-1,-1,20,22,-1,24,-1,-1,-1,-1,-1,-1,-1,-1,-1,-1],"split_conditions":[9.212086E1,9.084943E1,-2.4777098E-1,3.7588413E1,4.704216E1,-7.083685E-2,9.770798E1,-1.0026209E0,5.4489216E1,-1.754786E-1,4.6160874E-1,-1.2168967E0,9.443429E1,-2.7840716E-1,3.0246522E-2,-4.282608E-2,9.357697E-2,-1.3338062E-1,9.583969E-3,1.4042829E-1,-2.5862733E-1,-1.7118505E-1,2.782802E-1,1.355268E-1,-1.9795741E-1],"split_indices":[6,6,2,7,7,0,6,2,7,0,0,0,6,0,1,0,0,0,0,0,0,0,0,0,0],"split_type":[0,0,0,0,0,0,0,0,0,0,0,0,0,0,0,0,0,0,0,0,0,0,0,0,0],"sum_hessian":[2.383503E2,2.1734784E2,2.100246E1,2.1451622E2,2.831626E0,1.1772548E1,9.229913E0,9.212921E1,1.22387E2,1.1999989E0,1.6316271E0,5.6460004E0,6.126548E0,6.650896E0,2.579017E0,3.7561142E1,5.456807E1,3.1173233E1,9.121377E1,1.881584E0,3.7644162E0,1.1714518E0,4.955096E0,1.0122856E0,1.5667313E0],"tree_param":{"num_deleted":"0","num_feature":"15","num_nodes":"25","size_leaf_vector":"1"}},{"base_weights":[-1.4616765E-2,-2.1839115E-1,-4.7827605E-3,6.1121655E-1,-1.5403901E-2,-9.119652E-2,4.1215536E-1,2.5087846E-2,-1.8816467E-1,1.9386348E-4,2.7411097E-1,-9.6727155E-2,1.1121376E-1],"categories":[],"categories_nodes":[],"categories_segments":[],"categories_sizes":[],"default_left":[0,0,0,0,0,0,0,0,1,0,0,0,0],"id":14,"left_children":[1,-1,3,5,7,-1,-1,9,11,-1,-1,-1,-1],"loss_changes":[1.6741855E0,0E0,1.5593915E0,3.2374835E0,1.6406935E0,0E0,0E0,4.133476E0,3.4602947E0,0E0,0E0,0E0,0E0],"parents":[2147483647,0,0,2,2,3,3,4,4,7,7,8,8],"right_children":[2,-1,4,6,8,-1,-1,10,12,-1,-1,-1,-1],"split_conditions":[1.2049923E0,-2.1839115E-1,7.9818785E-1,6.783266E1,1.6936799E0,-9.119652E-2,4.1215536E-1,1.5663114E0,7.771602E1,1.9386348E-4,2.7411097E-1,-9.6727155E-2,1.1121376E-1],"split_indices":[4,0,6,7,1,0,0,1,5,0,0,0,0],"split_type":[0,0,0,0,0,0,0,0,0,0,0,0,0],"sum_hessian":[2.3815007E2,2.2453816E0,2.359047E2,3.0400884E0,2.328646E2,1.655178E0,1.3849105E0,1.8934145E2,4.3523155E1,1.852469E2,4.094545E0,3.5433937E1,8.089217E0],"tree_param":{"num_deleted":"0","num_feature":"15","num_nodes":"13","size_leaf_vector":"1"}},{"base_weights":[-1.0548448E-2,9.001815E-3,-3.376648E-1,-4.469975E-1,2.5988897E-2,2.4403274E-1,-6.917561E-1,-7.4427545E-1,1.3180132E-1,1.09978214E-1,-8.2344994E-2,-1.7232539E-1,1.0362557E0,-7.209583E-2,-2.6223943E-1,-2.5883812E-1,-1.5733466E-2,2.5065163E-2,4.0528336E-1,-2.6183346E-1,-9.1156E-3,4.9502307E-1,-2.9708022E-2,1.2718515E-1,-1.6067566E-1],"categories":[],"categories_nodes":[],"categories_segments":[],"categories_sizes":[],"default_left":[0,0,0,1,1,1,0,0,0,1,0,0,0,0,0,0,0,0,0,0,0,0,0,0,0],"id":15,"left_children":[1,3,5,7,9,11,13,15,-1,17,19,-1,21,23,-1,-1,-1,-1,-1,-1,-1,-1,-1,-1,-1],"loss_changes":[1.5259737E0,1.7597634E0,2.940332E0,2.4770947E0,1.9973525E0,4.3758373E0,9.1169405E-1,4.8622632E-1,0E0,3.938034E0,3.9163387E0,0E0,2.4765952E0,9.285546E-1,0E0,0E0,0E0,0E0,0E0,0E0,0E0,0E0,0E0,0E0,0E0],"parents":[2147483647,0,0,1,1,2,2,3,3,4,4,5,5,6,6,7,7,9,9,10,10,12,12,13,13],"right_children":[2,4,6,8,10,12,14,16,-1,18,20,-1,22,24,-1,-1,-1,-1,-1,-1,-1,-1,-1,-1,-1],"split_conditions":[9.6963684E1,3.9110184E0,1E0,2.4498742E0,1.9779332E-1,1.1580739E0,-1.7148849E0,8.048428E1,1.3180132E-1,1.3446939E-1,5.8531737E0,-1.7232539E-1,5.2805214E1,2.646192E1,-2.6223943E-1,-2.5883812E-1,-1.5733466E-2,2.5065163E-2,4.0528336E-1,-2.6183346E-1,-9.1156E-3,4.9502307E-1,-2.9708022E-2,1.2718515E-1,-1.6067566E-1],"split_indices":[5,7,8,2,2,2,1,4,0,2,3,0,4,6,0,0,0,0,0,0,0,0,0,0,0],"split_type":[0,0,0,0,0,0,0,0,0,0,0,0,0,0,0,0,0,0,0,0,0,0,0,0,0],"sum_hessian":[2.3713661E2,2.2468092E2,1.2455679E1,7.16017E0,2.1752075E2,4.8306904E0,7.624989E0,5.481834E0,1.6783365E0,1.2251889E2,9.500187E1,2.5112407E0,2.31945E0,2.0511312E0,5.573858E0,4.469109E0,1.0127246E0,1.210092E2,1.5096897E0,4.8854246E0,9.011644E1,1.2111555E0,1.1082944E0,1.0319752E0,1.019156E0],"tree_param":{"num_deleted":"0","num_feature":"15","num_nodes":"25","size_leaf_vector":"1"}},{"base_weights":[-1.0612651E-2,-1.4533387E-1,3.2193333E-2,-3.5573763E-3,-5.777735E-1,-4.351311E-2,2.5022194E-1,3.345376E-1,-2.5579518E-1,-7.654029E-1,2.5806996E-1,6.101211E-1,-1.00182734E-1,-2.9773128E-1,5.178352E-1,-6.378861E-2,1.7698842E-1,9.879013E-2,-1.642837E-1,-1.0293271E-1,-2.8268725E-1,3.2311782E-1,-1.6909502E-1,3.973407E-3,-1.2628229E-1,2.127873E-1,-1.4141811E-1,2.1117225E-1,-2.4535155E-1],"categories":[],"categories_nodes":[],"categories_segments":[],"categories_sizes":[],"default_left":[0,0,0,0,0,0,0,0,0,0,0,0,0,0,0,0,0,0,0,0,0,0,0,0,0,0,0,0,0],"id":16,"left_children":[1,3,5,7,9,11,13,15,17,19,-1,21,23,25,27,-1,-1,-1,-1,-1,-1,-1,-1,-1,-1,-1,-1,-1,-1],"loss_changes":[1.3759202E0,3.524203E0,3.0028543E0,3.8652678E0,4.488309E0,5.076392E0,7.0266576E0,2.8326833E0,4.61107E0,6.5415716E-1,0E0,6.604885E0,4.5699296E0,3.1347957E0,8.492208E0,0E0,0E0,0E0,0E0,0E0,0E0,0E0,0E0,0E0,0E0,0E0,0E0,0E0,0E0],"parents":[2147483647,0,0,1,1,2,2,3,3,4,4,5,5,6,6,7,7,8,8,9,9,11,11,12,12,13,13,14,14],"right_children":[2,4,6,8,10,12,14,16,18,20,-1,22,24,26,28,-1,-1,-1,-1,-1,-1,-1,-1,-1,-1,-1,-1,-1,-1],"split_conditions":[1E0,7.488902E1,7.532412E1,-3.75109E-1,2.817239E0,6.6438093E0,3.0977755E1,2.7177917E1,2.0574926E1,3.456073E1,2.5806996E-1,3E0,5.2805214E1,1.3493459E1,2.233959E0,-6.378861E-2,1.7698842E-1,9.879013E-2,-1.642837E-1,-1.0293271E-1,-2.8268725E-1,3.2311782E-1,-1.6909502E-1,3.973407E-3,-1.2628229E-1,2.127873E-1,-1.4141811E-1,2.1117225E-1,-2.4535155E-1],"split_indices":[10,4,4,0,1,6,6,4,4,6,0,10,4,5,1,0,0,0,0,0,0,0,0,0,0,0,0,0,0],"split_type":[0,0,0,0,0,0,0,0,0,0,0,0,0,0,0,0,0,0,0,0,0,0,0,0,0,0,0,0,0],"sum_hessian":[2.3677896E2,5.651544E1,1.8026352E2,4.332082E1,1.3194621E1,1.3439703E2,4.5866486E1,1.8370739E1,2.495008E1,1.2085458E1,1.1091629E0,9.943319E0,1.2445371E2,1.5013323E1,3.0853163E1,5.899797E0,1.2470941E1,8.26009E0,1.6689991E1,4.4356613E0,7.6497965E0,7.1724415E0,2.7708774E0,9.264946E1,3.1804253E1,1.7545933E0,1.325873E1,2.7495735E1,3.3574276E0],"tree_param":{"num_deleted":"0","num_feature":"15","num_nodes":"29","size_leaf_vector":"1"}},{"base_weights":[-1.5891384E-2,-1.3370822E-1,3.5080142E-2,-2.4365766E-1,2.9968494E-1,3.1516176E-1,-4.027987E-2,-2.9260492E-1,3.0912971E-1,-1.1714474E-1,1.2207547E0,4.4819853E-1,-6.610266E-1,-3.6637083E-1,3.4546923E-2,-3.3275075E-2,-1.970797E-1,2.5957602E-1,-1.7815273E-1,-1.6246638E-1,5.5236655E-1,1.8884885E-1,-1.2560911E-1,-3.7372444E-2,-2.3339146E-1,2.3182768E-1,-1.6107753E-1,2.2817715E-1,-5.864633E-3],"categories":[],"categories_nodes":[],"categories_segments":[],"categories_sizes":[],"default_left":[1,1,0,0,0,0,0,0,0,0,0,0,0,0,0,0,0,0,0,0,0,0,0,0,0,0,0,0,0],"id":17,"left_children":[1,3,5,7,9,11,13,15,-1,17,19,21,23,25,27,-1,-1,-1,-1,-1,-1,-1,-1,-1,-1,-1,-1,-1,-1],"loss_changes":[1.43208E0,3.503252E0,3.531268E0,3.9167485E0,5.907839E0,4.901056E0,3.2394783E0,3.6740313E0,0E0,5.7821283E0,6.2081714E0,5.2615256E0,1.9522262E-1,5.226964E0,4.275382E0,0E0,0E0,0E0,0E0,0E0,0E0,0E0,0E0,0E0,0E0,0E0,0E0,0E0,0E0],"parents":[2147483647,0,0,1,1,2,2,3,3,4,4,5,5,6,6,7,7,9,9,10,10,11,11,12,12,13,13,14,14],"right_children":[2,4,6,8,10,12,14,16,-1,18,20,22,24,26,28,-1,-1,-1,-1,-1,-1,-1,-1,-1,-1,-1,-1,-1,-1],"split_conditions":[2.7632692E1,2.5648339E0,4.0725975E1,9.785877E1,9.2864114E-1,8.476178E1,-9.9722826E-1,9.112938E-1,3.0912971E-1,2.6399359E1,3.567452E1,7.871384E1,2.1668123E1,-2.314044E0,-8.3952755E-1,-3.3275075E-2,-1.970797E-1,2.5957602E-1,-1.7815273E-1,-1.6246638E-1,5.5236655E-1,1.8884885E-1,-1.2560911E-1,-3.7372444E-2,-2.3339146E-1,2.3182768E-1,-1.6107753E-1,2.2817715E-1,-5.864633E-3],"split_indices":[5,2,5,3,1,3,0,1,0,3,6,7,6,0,0,0,0,0,0,0,0,0,0,0,0,0,0,0,0],"split_type":[0,0,0,0,0,0,0,0,0,0,0,0,0,0,0,0,0,0,0,0,0,0,0,0,0,0,0,0,0],"sum_hessian":[2.3668814E2,7.0986046E1,1.6570209E2,5.697069E1,1.4015357E1,3.445716E1,1.3124493E2,5.560484E1,1.3658535E0,1.0249684E1,3.765673E0,3.0800482E1,3.6566787E0,2.3768198E1,1.0747673E2,3.797257E1,1.7632267E1,3.0823507E0,7.167333E0,1.0136867E0,2.7519863E0,2.5699654E1,5.1008286E0,1.0241092E0,2.6325693E0,2.6354158E0,2.1132782E1,6.5469522E0,1.0092978E2],"tree_param":{"num_deleted":"0","num_feature":"15","num_nodes":"29","size_leaf_vector":"1"}},{"base_weights":[-1.6103104E-2,6.1708116E-3,-2.5034714E-1,-1.6517194E-1,5.108518E-2,5.8366627E-2,-6.993191E-1,-8.207766E-1,-1.4948303E-2,7.310568E-1,9.757135E-3,-3.617748E-1,4.509501E-1,-7.3798835E-2,-2.6717976E-1,-2.765586E-1,-1.3519279E-2,-4.371794E-2,2.6164874E-1,-7.138401E-2,4.1612333E-1,2.9069146E-2,-5.5208184E-2,-2.661527E-1,2.747702E-1,2.7095982E-1,-1.3116528E-1,-1.6449456E-1,1.341514E-1],"categories":[],"categories_nodes":[],"categories_segments":[],"categories_sizes":[],"default_left":[0,0,1,0,0,0,0,0,0,0,0,0,0,0,0,0,0,0,0,0,0,0,0,0,0,0,0,0,0],"id":18,"left_children":[1,3,5,7,9,11,13,15,17,19,21,23,25,27,-1,-1,-1,-1,-1,-1,-1,-1,-1,-1,-1,-1,-1,-1,-1],"loss_changes":[1.236651E0,1.6795179E0,2.893156E0,4.4526157E0,4.849116E0,2.326708E0,9.4672966E-1,6.196995E-1,4.5242667E0,6.615607E0,2.785859E0,5.4384985E0,3.2974448E0,1.0046067E0,0E0,0E0,0E0,0E0,0E0,0E0,0E0,0E0,0E0,0E0,0E0,0E0,0E0,0E0,0E0],"parents":[2147483647,0,0,1,1,2,2,3,3,4,4,5,5,6,6,7,7,8,8,9,9,10,10,11,11,12,12,13,13],"right_children":[2,4,6,8,10,12,14,16,18,20,22,24,26,28,-1,-1,-1,-1,-1,-1,-1,-1,-1,-1,-1,-1,-1,-1,-1],"split_conditions":[9.212086E1,1.9351725E1,-2.4777098E-1,2.1454382E1,2.28809E1,1.6072465E-1,1E0,8.5562965E1,1.2906444E0,-1.5969831E-1,7.7535975E-1,9.360562E-1,5.3863163E1,4.72192E1,-2.6717976E-1,-2.765586E-1,-1.3519279E-2,-4.371794E-2,2.6164874E-1,-7.138401E-2,4.1612333E-1,2.9069146E-2,-5.5208184E-2,-2.661527E-1,2.747702E-1,2.7095982E-1,-1.3116528E-1,-1.6449456E-1,1.341514E-1],"split_indices":[6,4,2,5,4,1,8,3,0,1,1,0,3,5,0,0,0,0,0,0,0,0,0,0,0,0,0,0,0],"split_type":[0,0,0,0,0,0,0,0,0,0,0,0,0,0,0,0,0,0,0,0,0,0,0,0,0,0,0,0,0],"sum_hessian":[2.3572227E2,2.161432E2,1.9579077E1,4.4334625E1,1.7180858E2,1.2117244E1,7.461834E0,7.432794E0,3.690183E1,8.887823E0,1.6292075E2,5.8910933E0,6.2261505E0,2.0719614E0,5.3898726E0,6.409186E0,1.023608E0,3.2889046E1,4.0127845E0,3.8452787E0,5.0425444E0,1.1272921E2,5.019154E1,4.391054E0,1.5000392E0,4.1142673E0,2.111883E0,1.0568552E0,1.0151063E0],"tree_param":{"num_deleted":"0","num_feature":"15","num_nodes":"29","size_leaf_vector":"1"}},{"base_weights":[-1.6427765E-2,-1.9925672E-1,-8.7758E-3,4.949828E-1,-1.854561E-2,1.1768959E0,-1.8136823E-1,-5.9672964E-1,-1.7343845E-3,1.13770485E-1,4.2459658E-1,1.1882346E-1,-2.5838944E-1,4.892229E-3,-1.3191019E-1],"categories":[],"categories_nodes":[],"categories_segments":[],"categories_sizes":[],"default_left":[0,0,0,0,0,0,0,0,0,0,0,0,0,0,0],"id":19,"left_children":[1,-1,3,5,7,9,-1,11,13,-1,-1,-1,-1,-1,-1],"loss_changes":[1.1635467E0,0E0,1.1617247E0,4.07909E0,2.2412517E0,5.501461E-2,0E0,2.0524192E0,1.7864234E0,0E0,0E0,0E0,0E0,0E0,0E0],"parents":[2147483647,0,0,2,2,3,3,4,4,5,5,7,7,8,8],"right_children":[2,-1,4,6,8,10,-1,12,14,-1,-1,-1,-1,-1,-1],"split_conditions":[1.2049923E0,-1.9925672E-1,2.3186011E0,2.0173866E-1,5.149868E0,4.451352E1,-1.8136823E-1,1.5588504E1,9.8853775E1,1.13770485E-1,4.2459658E-1,1.1882346E-1,-2.5838944E-1,4.892229E-3,-1.3191019E-1],"split_indices":[4,0,3,0,3,7,0,6,5,0,0,0,0,0,0],"split_type":[0,0,0,0,0,0,0,0,0,0,0,0,0,0,0],"sum_hessian":[2.3492067E2,1.74099E0,2.3317967E2,3.4913523E0,2.2968832E2,2.1114976E0,1.3798546E0,5.5150423E0,2.2417328E2,1.0820491E0,1.0294485E0,1.0558466E0,4.4591956E0,2.162286E2,7.944671E0],"tree_param":{"num_deleted":"0","num_feature":"15","num_nodes":"15","size_leaf_vector":"1"}},{"base_weights":[-1.3406277E-2,2.5864974E-2,-1.3670899E-1,-4.7088715E-1,4.923625E-2,8.416747E-1,-2.1821004E-1,3.360455E-1,-2.645742E-1,6.060906E-1,1.2772388E-2,-5.581871E-2,4.559047E-1,5.897982E-1,-2.8032506E-1,3.0909577E-1,-1.6992426E-1,2.6065478E-1,-1.1496839E-1,-1.1486212E-1,1.7647995E-2,-2.7197827E-2,3.978496E-1,-1.5129888E-1,-6.0148067E-3],"categories":[],"categories_nodes":[],"categories_segments":[],"categories_sizes":[],"default_left":[0,0,0,0,0,0,0,0,0,1,0,0,0,0,1,0,0,0,0,0,0,0,0,0,0],"id":20,"left_children":[1,3,5,7,9,11,13,15,-1,17,19,-1,-1,21,23,-1,-1,-1,-1,-1,-1,-1,-1,-1,-1],"loss_changes":[1.1421758E0,2.103484E0,4.725691E0,2.9982266E0,3.485533E0,3.4783156E0,2.8441987E0,2.7597396E0,0E0,3.075876E0,2.983247E0,0E0,0E0,2.1908474E0,2.9191802E0,0E0,0E0,0E0,0E0,0E0,0E0,0E0,0E0,0E0,0E0],"parents":[2147483647,0,0,1,1,2,2,3,3,4,4,5,5,6,6,7,7,9,9,10,10,13,13,14,14],"right_children":[2,4,6,8,10,12,14,16,-1,18,20,-1,-1,22,24,-1,-1,-1,-1,-1,-1,-1,-1,-1,-1],"split_conditions":[3E0,4.404834E0,-1.8896493E0,3.1679518E1,9.263646E0,2E0,5.8531737E0,5.1825493E1,-2.645742E-1,3.0836518E0,1.7864199E1,-5.581871E-2,4.559047E-1,7.5580284E1,-2.5240999E-2,3.0909577E-1,-1.6992426E-1,2.6065478E-1,-1.1496839E-1,-1.1486212E-1,1.7647995E-2,-2.7197827E-2,3.978496E-1,-1.5129888E-1,-6.0148067E-3],"split_indices":[12,4,0,6,4,9,3,5,0,2,4,0,0,5,2,0,0,0,0,0,0,0,0,0,0],"split_type":[0,0,0,0,0,0,0,0,0,0,0,0,0,0,0,0,0,0,0,0,0,0,0,0,0],"sum_hessian":[2.3414679E2,1.781858E2,5.5960987E1,7.1462154E0,1.7103958E2,3.585961E0,5.2375027E1,2.473208E0,4.673007E0,9.551599E0,1.6148799E2,1.7137702E0,1.8721911E0,3.1324217E0,4.9242603E1,1.3177598E0,1.1554482E0,7.643333E0,1.9082654E0,1.6075129E1,1.4541286E2,2.0837579E0,1.0486639E0,2.5961414E1,2.3281189E1],"tree_param":{"num_deleted":"0","num_feature":"15","num_nodes":"25","size_leaf_vector":"1"}},{"base_weights":[-1.1129055E-2,1.0157071E-2,-2.3913142E-1,-1.4305819E-2,3.9945516E-1,6.333484E-1,-4.8805588E-1,4.6567116E-2,-1.6552827E-1,9.1891E-1,-2.274987E-1,-1.24764055E-1,3.9947885E-1,-7.0714486E-1,1.9705646E-1,-6.0522545E-2,4.2130195E-2,-7.89113E-2,2.3981987E-1,5.0159025E-1,-3.2788374E-2,3.2091737E-1,-2.0722641E-1,1.2163731E-1,-2.5239655E-1,-1.93779E-1,2.46027E-1],"categories":[],"categories_nodes":[],"categories_segments":[],"categories_sizes":[],"default_left":[0,0,0,0,0,0,0,0,0,0,0,0,0,0,0,0,0,0,0,0,0,0,0,0,0,0,0],"id":21,"left_children":[1,3,5,7,9,11,13,15,17,19,21,-1,-1,23,25,-1,-1,-1,-1,-1,-1,-1,-1,-1,-1,-1,-1],"loss_changes":[1.137683E0,2.0522873E0,4.6558084E0,1.8778696E0,4.3581996E0,4.127414E0,2.5614085E0,3.422723E0,5.7171464E0,5.731243E0,4.689732E0,0E0,0E0,2.198884E0,2.9939468E0,0E0,0E0,0E0,0E0,0E0,0E0,0E0,0E0,0E0,0E0,0E0,0E0],"parents":[2147483647,0,0,1,1,2,2,3,3,4,4,5,5,6,6,7,7,8,8,9,9,10,10,13,13,14,14],"right_children":[2,4,6,8,10,12,14,16,18,20,22,-1,-1,24,26,-1,-1,-1,-1,-1,-1,-1,-1,-1,-1,-1,-1],"split_conditions":[9.3129524E1,8.89356E1,-3.0413811E0,3E0,2E0,4.7508987E1,3E0,-1.7061172E0,2.6709478E0,2E0,1.8675062E1,-1.24764055E-1,3.9947885E-1,9.136061E0,2E0,-6.0522545E-2,4.2130195E-2,-7.89113E-2,2.3981987E-1,5.0159025E-1,-3.2788374E-2,3.2091737E-1,-2.0722641E-1,1.2163731E-1,-2.5239655E-1,-1.93779E-1,2.46027E-1],"split_indices":[4,4,2,13,14,6,11,2,1,8,5,0,0,5,10,0,0,0,0,0,0,0,0,0,0,0,0],"split_type":[0,0,0,0,0,0,0,0,0,0,0,0,0,0,0,0,0,0,0,0,0,0,0,0,0,0,0],"sum_hessian":[2.329145E2,2.1390038E2,1.9014124E1,2.021602E2,1.1740182E1,3.8778667E0,1.5136256E1,1.4463217E2,5.752803E1,6.1658607E0,5.5743213E0,1.7110842E0,2.1667826E0,1.1444359E1,3.691898E0,3.936074E1,1.0527143E2,5.2908806E1,4.619221E0,3.1977344E0,2.968126E0,1.1223471E0,4.451974E0,1.0140431E0,1.0430315E1,1.5533755E0,2.1385226E0],"tree_param":{"num_deleted":"0","num_feature":"15","num_nodes":"27","size_leaf_vector":"1"}},{"base_weights":[-9.184485E-3,5.9097063E-2,-9.3821585E-2,3.139126E-2,4.9262294E-1,5.734115E-3,-3.9920893E-1,-1.1209434E-1,2.0260985E-1,1.0099058E-1,-5.0741357E-1,-6.914927E-1,3.4857732E-1,-1.4728826E-1,3.3982276E-4,1.0678654E-1,-1.147756E-1,-1.2225793E-1,6.493744E-2,3.856393E-2,-2.4664228E-1,-2.5048396E-1,-8.6593546E-2,2.578183E-1,-9.9583864E-2],"categories":[],"categories_nodes":[],"categories_segments":[],"categories_sizes":[],"default_left":[1,1,0,0,0,0,0,0,0,0,0,0,0,0,0,0,0,0,0,0,0,0,0,0,0],"id":22,"left_children":[1,3,5,7,-1,9,11,13,15,17,19,21,23,-1,-1,-1,-1,-1,-1,-1,-1,-1,-1,-1,-1],"loss_changes":[1.3487115E0,5.6170897E0,3.169232E0,3.16849E0,0E0,3.9393058E0,5.8414164E0,3.016678E0,5.407115E0,4.076419E0,2.6315672E0,8.4300613E-1,3.0195343E0,0E0,0E0,0E0,0E0,0E0,0E0,0E0,0E0,0E0,0E0,0E0,0E0],"parents":[2147483647,0,0,1,1,2,2,3,3,5,5,6,6,7,7,8,8,9,9,10,10,11,11,12,12],"right_children":[2,4,6,8,-1,10,12,14,16,18,20,22,24,-1,-1,-1,-1,-1,-1,-1,-1,-1,-1,-1,-1],"split_conditions":[1.9779332E-1,1.6855176E-1,3E0,5.5869293E1,4.9262294E-1,8.144103E1,3E0,1E0,7.5306305E1,1.3774928E1,3.5125034E1,6.649252E1,4.1278458E1,-1.4728826E-1,3.3982276E-4,1.0678654E-1,-1.147756E-1,-1.2225793E-1,6.493744E-2,3.856393E-2,-2.4664228E-1,-2.5048396E-1,-8.6593546E-2,2.578183E-1,-9.9583864E-2],"split_indices":[2,2,11,6,0,6,8,8,3,6,5,4,6,0,0,0,0,0,0,0,0,0,0,0,0],"split_type":[0,0,0,0,0,0,0,0,0,0,0,0,0,0,0,0,0,0,0,0,0,0,0,0,0],"sum_hessian":[2.3141591E2,1.2825063E2,1.0316528E2,1.2704684E2,1.2037835E0,7.854198E1,2.4623312E1,6.930923E1,5.7737606E1,6.692227E1,1.16197E1,1.7757717E1,6.8655953E0,1.5179934E1,5.4129295E1,4.605978E1,1.1677829E1,1.1915829E1,5.5006447E1,4.0425677E0,7.577132E0,1.2303746E1,5.453971E0,3.7716572E0,3.093938E0],"tree_param":{"num_deleted":"0","num_feature":"15","num_nodes":"25","size_leaf_vector":"1"}},{"base_weights":[-1.2569278E-2,-1.10706374E-1,4.5350928E-2,-4.4448957E-1,8.881273E-3,1.0523582E0,-2.516355E-2,-1.2308776E-1,-7.898891E-1,1.20353855E-1,-5.145219E-1,-5.55735E-1,1.7183081E0,-6.37467E-1,2.4668638E-2,1.3387366E-1,-1.4250214E-1,-8.2399294E-2,-2.8242338E-1,1.9045457E-1,-3.0802777E-3,1.7416629E-1,-2.1638343E-1,-4.310713E-2,-1.9856861E-1,2.823926E-2,6.5005577E-1,-2.4742566E-1,-1.3247195E-2,-9.939704E-2,2.9425194E-2],"categories":[],"categories_nodes":[],"categories_segments":[],"categories_sizes":[],"default_left":[0,0,0,0,0,0,0,0,0,0,0,0,0,0,0,0,0,0,0,0,0,0,0,0,0,0,0,0,0,0,0],"id":23,"left_children":[1,3,5,7,9,11,13,15,17,19,21,23,25,27,29,-1,-1,-1,-1,-1,-1,-1,-1,-1,-1,-1,-1,-1,-1,-1,-1],"loss_changes":[1.3245332E0,3.4546654E0,1.044283E1,2.4363523E0,3.8325453E0,1.1260328E1,4.2285256E0,2.8179557E0,5.858121E-1,3.6415465E0,3.0308194E0,6.1215997E-2,4.9315777E0,1.1223497E0,3.3945436E0,0E0,0E0,0E0,0E0,0E0,0E0,0E0,0E0,0E0,0E0,0E0,0E0,0E0,0E0,0E0,0E0],"parents":[2147483647,0,0,1,1,2,2,3,3,4,4,5,5,6,6,7,7,8,8,9,9,10,10,11,11,12,12,13,13,14,14],"right_children":[2,4,6,8,10,12,14,16,18,20,22,24,26,28,30,-1,-1,-1,-1,-1,-1,-1,-1,-1,-1,-1,-1,-1,-1,-1,-1],"split_conditions":[3.6505127E1,1E0,3.9319145E1,2E0,3.077932E1,-3.8856822E-1,4.251679E1,-6.838489E-1,1.0951749E1,1.5588504E1,9.263646E0,-3.8916934E-1,2.0574926E1,3E0,1.6062021E1,1.3387366E-1,-1.4250214E-1,-8.2399294E-2,-2.8242338E-1,1.9045457E-1,-3.0802777E-3,1.7416629E-1,-2.1638343E-1,-4.310713E-2,-1.9856861E-1,2.823926E-2,6.5005577E-1,-2.4742566E-1,-1.3247195E-2,-9.939704E-2,2.9425194E-2],"split_indices":[3,12,3,8,3,0,3,0,3,6,4,1,4,9,6,0,0,0,0,0,0,0,0,0,0,0,0,0,0,0,0],"split_type":[0,0,0,0,0,0,0,0,0,0,0,0,0,0,0,0,0,0,0,0,0,0,0,0,0,0,0,0,0,0,0],"sum_hessian":[2.3114017E2,8.544874E1,1.4569142E2,2.1822557E1,6.362618E1,8.623039E0,1.3706839E2,1.2006557E1,9.816001E0,5.308943E1,1.0536747E1,2.5737102E0,6.049329E0,9.428254E0,1.2764014E2,4.484127E0,7.5224304E0,2.8699467E0,6.946054E0,9.967804E0,4.3121628E1,1.3863071E0,9.15044E0,1.0094014E0,1.5643088E0,1.5709137E0,4.478415E0,6.8696737E0,2.5585802E0,2.1221888E1,1.0641824E2],"tree_param":{"num_deleted":"0","num_feature":"15","num_nodes":"31","size_leaf_vector":"1"}},{"base_weights":[-1.7018007E-2,6.318191E-2,-8.349456E-2,1.0149565E-2,9.391203E-1,-1.2881316E-1,3.607395E-1,4.203001E-2,-2.3378682E-1,-3.132876E-1,1.7930667E0,2.830979E-2,-3.551809E-1,1.0276108E0,-1.2768754E-1,8.388345E-2,-1.6705463E-2,-1.8678248E-1,5.7451125E-2,6.387326E-2,7.262777E-1,-2.2103788E-2,1.2068463E-1,1.1021451E-2,-1.6848487E-1,6.2838787E-1,3.966273E-3,1.791879E-1,-1.61624E-1],"categories":[],"categories_nodes":[],"categories_segments":[],"categories_sizes":[],"default_left":[0,0,1,0,0,0,0,0,0,0,0,0,1,0,0,0,0,0,0,0,0,0,0,0,0,0,0,0,0],"id":24,"left_children":[1,3,5,7,9,11,13,15,-1,17,19,21,23,25,27,-1,-1,-1,-1,-1,-1,-1,-1,-1,-1,-1,-1,-1,-1],"loss_changes":[1.2420759E0,4.900956E0,2.6087766E0,2.566758E0,7.0040097E0,4.144068E0,4.0545363E0,2.2842925E0,0E0,6.33464E-1,3.1854734E0,2.6817644E0,3.8794618E0,5.6037354E0,2.6588678E0,0E0,0E0,0E0,0E0,0E0,0E0,0E0,0E0,0E0,0E0,0E0,0E0,0E0,0E0],"parents":[2147483647,0,0,1,1,2,2,3,3,4,4,5,5,6,6,7,7,9,9,10,10,11,11,12,12,13,13,14,14],"right_children":[2,4,6,8,10,12,14,16,-1,18,20,22,24,26,28,-1,-1,-1,-1,-1,-1,-1,-1,-1,-1,-1,-1,-1,-1],"split_conditions":[4.1872593E1,4.0345245E1,8.912286E1,6.00001E0,2E0,5.0029728E1,9.2097244E1,2.539018E1,-2.3378682E-1,4.897946E-1,3.8697323E1,3.9628334E1,1E0,-1.0676893E0,2.416628E1,8.388345E-2,-1.6705463E-2,-1.8678248E-1,5.7451125E-2,6.387326E-2,7.262777E-1,-2.2103788E-2,1.2068463E-1,1.1021451E-2,-1.6848487E-1,6.2838787E-1,3.966273E-3,1.791879E-1,-1.61624E-1],"split_indices":[4,4,5,13,10,5,5,6,0,1,6,5,13,1,3,0,0,0,0,0,0,0,0,0,0,0,0,0,0],"split_type":[0,0,0,0,0,0,0,0,0,0,0,0,0,0,0,0,0,0,0,0,0,0,0,0,0,0,0,0,0],"sum_hessian":[2.3098358E2,1.04708595E2,1.2627499E2,9.968491E1,5.023683E0,1.1522983E2,1.1045156E1,9.672554E1,2.9593732E0,2.2933536E0,2.7303295E0,6.853458E1,4.669525E1,4.2028704E0,6.842285E0,2.7646076E1,6.907947E1,1.2772789E0,1.0160745E0,1.1571622E0,1.5731672E0,5.4479897E1,1.4054682E1,1.6393705E1,3.0301546E1,1.5293093E0,2.6735609E0,2.311847E0,4.5304384E0],"tree_param":{"num_deleted":"0","num_feature":"15","num_nodes":"29","size_leaf_vector":"1"}},{"base_weights":[-1.3140436E-2,1.8670878E-3,-3.4709543E-1,-1.8724173E-1,3.8595032E-2,3.5256073E-1,-6.7545366E-1,-3.7701702E-1,2.2211464E-1,5.6991177E-3,2.975956E-1,3.307732E-1,-1.1818013E-1,1.0096252E-1,-2.6908287E-1,8.76136E-2,-1.5295851E-1,3.042663E-1,-1.4827928E-1,-6.768702E-2,2.1871844E-2,2.0104201E-1,-8.727229E-2],"categories":[],"categories_nodes":[],"categories_segments":[],"categories_sizes":[],"default_left":[0,0,0,0,0,0,1,1,1,0,0,0,0,0,0,0,0,0,0,0,0,0,0],"id":25,"left_children":[1,3,5,7,9,11,13,15,17,19,21,-1,-1,-1,-1,-1,-1,-1,-1,-1,-1,-1,-1],"loss_changes":[1.1550752E0,1.5451771E0,2.5151587E0,2.8945627E0,1.5851376E0,2.574689E0,1.8907275E0,2.379117E0,7.3617015E0,2.6014714E0,4.792479E0,0E0,0E0,0E0,0E0,0E0,0E0,0E0,0E0,0E0,0E0,0E0,0E0],"parents":[2147483647,0,0,1,1,2,2,3,3,4,4,5,5,6,6,7,7,8,8,9,9,10,10],"right_children":[2,4,6,8,10,12,14,16,18,20,22,-1,-1,-1,-1,-1,-1,-1,-1,-1,-1,-1,-1],"split_conditions":[1.7159076E0,1.9545801E1,2.6222265E1,6.755337E1,8.846491E1,2.5625116E1,8.29756E0,-4.703317E0,7.8869896E1,2.153294E1,7.7274525E-1,3.307732E-1,-1.1818013E-1,1.0096252E-1,-2.6908287E-1,8.76136E-2,-1.5295851E-1,3.042663E-1,-1.4827928E-1,-6.768702E-2,2.1871844E-2,2.0104201E-1,-8.727229E-2],"split_indices":[0,3,4,5,7,7,5,2,5,4,2,0,0,0,0,0,0,0,0,0,0,0,0],"split_type":[0,0,0,0,0,0,0,0,0,0,0,0,0,0,0,0,0,0,0,0,0,0,0],"sum_hessian":[2.293401E2,2.2042873E2,8.911385E0,3.518196E1,1.8524677E2,2.8228438E0,6.0885406E0,2.4092031E1,1.1089929E1,1.652768E2,1.9969963E1,1.170158E0,1.6526859E0,1.0000074E0,5.0885334E0,3.7925816E0,2.029945E1,5.069157E0,6.020771E0,3.6677593E1,1.285992E2,1.214378E1,7.8261833E0],"tree_param":{"num_deleted":"0","num_feature":"15","num_nodes":"23","size_leaf_vector":"1"}},{"base_weights":[-1.2606589E-2,8.256053E-2,-5.9033755E-2,-3.8243613E-1,1.7405365E-1,-4.1551806E-2,-2.2989593E-1,-5.6297034E-1,1.978555E-1,-2.0788848E-1,3.3716893E-1,3.402006E-1,-7.323517E-2,-2.0997491E-1,1.0083563E-1,-2.4528092E-1,3.7997887E-2,1.4415264E-1,-9.076139E-2,3.6209813E-1,4.174153E-3,-2.4583933E-1,-1.5264777E-2],"categories":[],"categories_nodes":[],"categories_segments":[],"categories_sizes":[],"default_left":[0,0,0,0,0,0,0,0,0,0,0,0,0,0,0,0,0,0,0,0,0,0,0],"id":26,"left_children":[1,3,5,7,9,11,-1,13,-1,15,17,19,21,-1,-1,-1,-1,-1,-1,-1,-1,-1,-1],"loss_changes":[1.0185663E0,3.284758E0,1.8820276E0,2.7695723E0,4.050755E0,1.8646952E0,0E0,1.6396561E0,0E0,4.13006E0,4.2858458E0,3.3300927E0,2.3147829E0,0E0,0E0,0E0,0E0,0E0,0E0,0E0,0E0,0E0,0E0],"parents":[2147483647,0,0,1,1,2,2,3,3,4,4,5,5,7,7,9,9,10,10,11,11,12,12],"right_children":[2,4,6,8,10,12,-1,14,-1,16,18,20,22,-1,-1,-1,-1,-1,-1,-1,-1,-1,-1],"split_conditions":[3.148902E1,2.1454382E1,1.9529173E0,8.805955E1,3.422827E1,6.3962774E0,-2.2989593E-1,8.7444E1,1.978555E-1,-5.1844364E-1,8.5127235E1,-1.4582131E0,2.0331442E0,-2.0997491E-1,1.0083563E-1,-2.4528092E-1,3.7997887E-2,1.4415264E-1,-9.076139E-2,3.6209813E-1,4.174153E-3,-2.4583933E-1,-1.5264777E-2],"split_indices":[4,5,0,6,3,5,0,3,0,1,3,0,6,0,0,0,0,0,0,0,0,0,0],"split_type":[0,0,0,0,0,0,0,0,0,0,0,0,0,0,0,0,0,0,0,0,0,0,0],"sum_hessian":[2.2842838E2,7.46439E1,1.5378448E2,1.1749471E1,6.289443E1,1.5110829E2,2.6761878E0,1.0406147E1,1.3433235E0,1.8739805E1,4.415462E1,1.0833853E1,1.4027444E2,9.222878E0,1.1832683E0,6.1278615E0,1.2611943E1,3.627525E1,7.8793736E0,2.2246926E0,8.60916E0,3.0424669E0,1.3723198E2],"tree_param":{"num_deleted":"0","num_feature":"15","num_nodes":"23","size_leaf_vector":"1"}},{"base_weights":[-1.3614429E-2,2.334223E-2,-1.326241E-1,-1.9924627E-1,7.450706E-2,3.3551213E-1,-2.4306811E-1,1.8720828E-1,-5.771687E-1,5.143921E-1,3.3691797E-2,-3.9768273E-1,8.126042E-1,-8.4662214E-2,-6.752562E-1,-6.220851E-2,2.4882917E-1,2.1344452E-1,-2.2869436E-1,3.096715E-1,-7.189125E-2,-2.0201726E-1,2.1775803E-2,-2.3796864E-1,1.2582265E-1,-6.674151E-2,3.4696555E-1,1.23674005E-1,-8.747683E-2,1.0246614E-1,-2.4377172E-1],"categories":[],"categories_nodes":[],"categories_segments":[],"categories_sizes":[],"default_left":[0,0,0,0,0,0,0,0,0,0,0,0,1,1,0,0,0,0,0,0,0,0,0,0,0,0,0,0,0,0,0],"id":27,"left_children":[1,3,5,7,9,11,13,15,17,19,21,23,25,27,29,-1,-1,-1,-1,-1,-1,-1,-1,-1,-1,-1,-1,-1,-1,-1,-1],"loss_changes":[1.010181E0,2.0143638E0,2.894514E0,4.940326E0,2.5587816E0,4.1029816E0,2.9962466E0,4.5086226E0,4.591886E0,4.9770756E0,3.6892707E0,1.9263616E0,2.704761E0,3.5937545E0,1.9277873E0,0E0,0E0,0E0,0E0,0E0,0E0,0E0,0E0,0E0,0E0,0E0,0E0,0E0,0E0,0E0,0E0],"parents":[2147483647,0,0,1,1,2,2,3,3,4,4,5,5,6,6,7,7,8,8,9,9,10,10,11,11,12,12,13,13,14,14],"right_children":[2,4,6,8,10,12,14,16,18,20,22,24,26,28,30,-1,-1,-1,-1,-1,-1,-1,-1,-1,-1,-1,-1,-1,-1,-1,-1],"split_conditions":[3E0,-9.846337E-1,-1.121134E0,2E0,-7.880476E-1,-3.522684E-1,3E0,6.208041E1,-4.194294E0,2E0,5.181813E0,8.149806E1,2.1454382E1,1E0,-2.769036E0,-6.220851E-2,2.4882917E-1,2.1344452E-1,-2.2869436E-1,3.096715E-1,-7.189125E-2,-2.0201726E-1,2.1775803E-2,-2.3796864E-1,1.2582265E-1,-6.674151E-2,3.4696555E-1,1.23674005E-1,-8.747683E-2,1.0246614E-1,-2.4377172E-1],"split_indices":[12,0,0,14,0,1,13,3,2,8,4,4,5,9,1,0,0,0,0,0,0,0,0,0,0,0,0,0,0,0,0],"split_type":[0,0,0,0,0,0,0,0,0,0,0,0,0,0,0,0,0,0,0,0,0,0,0,0,0,0,0,0,0,0,0],"sum_hessian":[2.2797668E2,1.7457036E2,5.340633E1,3.208648E1,1.4248389E2,9.805625E0,4.3600704E1,1.6113665E1,1.59728155E1,1.1112828E1,1.3137105E2,3.9309645E0,5.87466E0,3.2781498E1,1.0819206E1,1.0400748E1,5.712917E0,1.6494573E0,1.4323358E1,6.369484E0,4.7433443E0,5.9989476E0,1.253721E2,2.6684153E0,1.2625492E0,1.5533105E0,4.3213496E0,9.346018E0,2.343548E1,1.1102895E0,9.708917E0],"tree_param":{"num_deleted":"0","num_feature":"15","num_nodes":"31","size_leaf_vector":"1"}},{"base_weights":[-1.4657632E-2,-1.3060856E-1,2.2687454E-2,-1.8183267E-1,3.7423444E-1,2.1169098E-1,-4.7775947E-2,-5.0728524E-1,4.127465E-2,5.0654274E-1,-3.210595E-1,-9.570603E-3,-7.5962836E-1,-2.4601798E-1,3.6129873E-2,4.881498E-2,-2.4554591E-1,6.115456E-2,2.7800092E-1,-1.596802E-1,2.4451204E-1,-2.7530724E-2,5.994084E-2,-2.4357604E-2,-2.617481E-1],"categories":[],"categories_nodes":[],"categories_segments":[],"categories_sizes":[],"default_left":[0,0,0,0,0,0,0,0,0,1,0,0,0,0,0,0,0,0,0,0,0,0,0,0,0],"id":28,"left_children":[1,3,5,7,-1,9,11,13,15,17,19,21,23,-1,-1,-1,-1,-1,-1,-1,-1,-1,-1,-1,-1],"loss_changes":[9.908249E-1,4.1604023E0,2.3195415E0,3.9855013E0,0E0,7.588971E0,3.4502833E0,4.473469E0,3.6119726E0,3.73064E0,4.622308E0,2.112282E0,4.2403793E-1,0E0,0E0,0E0,0E0,0E0,0E0,0E0,0E0,0E0,0E0,0E0,0E0],"parents":[2147483647,0,0,1,1,2,2,3,3,5,5,6,6,7,7,8,8,9,9,10,10,11,11,12,12],"right_children":[2,4,6,8,-1,10,12,14,16,18,20,22,24,-1,-1,-1,-1,-1,-1,-1,-1,-1,-1,-1,-1],"split_conditions":[1E0,9.8749565E1,2.5068296E1,4.1278458E1,3.7423444E-1,3.3919534E-1,9.419692E1,3E0,9.2864174E1,8.915014E-1,3.3440835E0,6.641823E1,2.2815372E1,-2.4601798E-1,3.6129873E-2,4.881498E-2,-2.4554591E-1,6.115456E-2,2.7800092E-1,-1.596802E-1,2.4451204E-1,-2.7530724E-2,5.994084E-2,-2.4357604E-2,-2.617481E-1],"split_indices":[9,7,6,6,0,1,7,8,6,2,1,7,3,0,0,0,0,0,0,0,0,0,0,0,0],"split_type":[0,0,0,0,0,0,0,0,0,0,0,0,0,0,0,0,0,0,0,0,0,0,0,0,0],"sum_hessian":[2.271332E2,5.4724483E1,1.724087E2,5.360015E1,1.124334E0,4.6276714E1,1.2613199E2,2.128192E1,3.231823E1,2.9821268E1,1.6455444E1,1.2066909E2,5.462903E0,1.3999794E1,7.2821255E0,2.9028652E1,3.2895782E0,1.8196333E1,1.1624936E1,1.43240185E1,2.1314263E0,8.7054016E1,3.3615074E1,1.0244255E0,4.4384775E0],"tree_param":{"num_deleted":"0","num_feature":"15","num_nodes":"25","size_leaf_vector":"1"}},{"base_weights":[-1.5278054E-2,-8.596299E-3,-1.8806937E-1,5.513423E-2,-6.866186E-2,9.578306E-3,7.759464E-1,-2.2588632E-1,-4.0926635E-2,2.88396E-2,-1.0270435E-1,-1.7145158E-1,3.536017E-1,2.3085797E-1,-2.3261754E-2],"categories":[],"categories_nodes":[],"categories_segments":[],"categories_sizes":[],"default_left":[1,1,0,1,0,0,1,0,0,0,0,0,0,0,0],"id":29,"left_children":[1,3,-1,5,7,9,11,-1,13,-1,-1,-1,-1,-1,-1],"loss_changes":[9.2372E-1,8.68559E-1,0E0,3.610054E0,2.184845E0,3.2199318E0,4.220448E0,0E0,3.4201903E0,0E0,0E0,0E0,0E0,0E0,0E0],"parents":[2147483647,0,0,1,1,3,3,4,4,5,5,6,6,8,8],"right_children":[2,4,-1,6,8,10,12,-1,14,-1,-1,-1,-1,-1,-1],"split_conditions":[9.8853775E1,-3.856531E-1,-1.8806937E-1,-5.3919756E-1,-1.9899462E0,7.5306305E1,3.0782995E1,-2.2588632E-1,-1.6552247E0,2.88396E-2,-1.0270435E-1,-1.7145158E-1,3.536017E-1,2.3085797E-1,-2.3261754E-2],"split_indices":[5,2,0,2,0,3,5,0,0,0,0,0,0,0,0],"split_type":[0,0,0,0,0,0,0,0,0,0,0,0,0,0,0],"sum_hessian":[2.2634978E2,2.249068E2,1.4429814E0,1.0916406E2,1.1574274E2,1.03627975E2,5.536085E0,3.4899364E0,1.122528E2,8.375571E1,1.987227E1,1.1774493E0,4.358636E0,3.9866402E0,1.0826616E2],"tree_param":{"num_deleted":"0","num_feature":"15","num_nodes":"15","size_leaf_vector":"1"}},{"base_weights":[-1.3336084E-2,-4.0038317E-3,-4.0233338E-1,-1.4417632E-1,2.1791846E-2,-2.6373228E-1,2.0525391E-1,-3.0427325E-1,3.3249614E-1,1.8275395E-1,-5.5364408E-2,-1.8493347E-1,5.656291E-2,2.7674085E-1,-1.3646291E-1,-4.6068177E-2,1.2048793E-1,-2.7122099E-2,1.7228016E-1],"categories":[],"categories_nodes":[],"categories_segments":[],"categories_sizes":[],"default_left":[0,0,0,1,0,0,0,1,1,0,0,0,0,0,0,0,0,0,0],"id":30,"left_children":[1,3,5,7,9,-1,-1,11,13,15,17,-1,-1,-1,-1,-1,-1,-1,-1],"loss_changes":[8.198434E-1,8.0582607E-1,3.3425226E0,2.7442462E0,2.349361E0,0E0,0E0,4.1851826E0,4.686594E0,4.5713663E0,2.8781252E0,0E0,0E0,0E0,0E0,0E0,0E0,0E0,0E0],"parents":[2147483647,0,0,1,1,2,2,3,3,4,4,7,7,8,8,9,9,10,10],"right_children":[2,4,6,8,10,-1,-1,12,14,16,18,-1,-1,-1,-1,-1,-1,-1,-1],"split_conditions":[9.818626E1,1.5035574E1,3E0,2.4498742E0,3.632655E1,-2.6373228E-1,2.0525391E-1,6.1489986E1,4.1605988E1,-4.5863864E-1,9.5753944E1,-1.8493347E-1,5.656291E-2,2.7674085E-1,-1.3646291E-1,-4.6068177E-2,1.2048793E-1,-2.7122099E-2,1.7228016E-1],"split_indices":[4,7,11,2,7,0,0,5,5,0,3,0,0,0,0,0,0,0,0],"split_type":[0,0,0,0,0,0,0,0,0,0,0,0,0,0,0,0,0,0,0],"sum_hessian":[2.252822E2,2.209908E2,4.2913938E0,3.3634323E1,1.8735648E2,3.1152694E0,1.1761243E0,2.5448704E1,8.18562E0,6.0264675E1,1.270918E2,1.5426202E1,1.0022502E1,4.5813007E0,3.6043198E0,2.3875902E1,3.6388775E1,1.212026E2,5.889202E0],"tree_param":{"num_deleted":"0","num_feature":"15","num_nodes":"19","size_leaf_vector":"1"}},{"base_weights":[-1.2060823E-2,1.6737664E-1,-1.8162716E-2,-5.314838E-2,7.355331E-2,-2.650757E-1,-6.2456117E-3,2.4026926E-1,-2.3379923E-1,-1.312537E-1,5.0651222E-2,6.0885582E-2,-3.157448E-2,-1.0585083E-2,1.5850852E-1,1.4642617E-1,-1.7441015E-1],"categories":[],"categories_nodes":[],"categories_segments":[],"categories_sizes":[],"default_left":[0,0,0,0,1,1,0,0,0,0,0,0,0,0,0,0,0],"id":31,"left_children":[1,-1,3,5,7,9,11,13,15,-1,-1,-1,-1,-1,-1,-1,-1],"loss_changes":[7.948791E-1,0E0,7.23347E-1,1.6173812E0,3.2500079E0,2.2805116E0,2.8047192E0,3.2657664E0,5.9106717E0,0E0,0E0,0E0,0E0,0E0,0E0,0E0,0E0],"parents":[2147483647,0,0,2,2,3,3,4,4,5,5,6,6,7,7,8,8],"right_children":[2,-1,4,6,8,10,12,14,16,-1,-1,-1,-1,-1,-1,-1,-1],"split_conditions":[9.725875E-1,1.6737664E-1,3E0,1.7350525E1,9.291885E-1,3E0,3.7588413E1,5.6280052E1,2.474854E1,-1.312537E-1,5.0651222E-2,6.0885582E-2,-3.157448E-2,-1.0585083E-2,1.5850852E-1,1.4642617E-1,-1.7441015E-1],"split_indices":[3,0,10,7,2,9,7,6,6,0,0,0,0,0,0,0,0],"split_type":[0,0,0,0,0,0,0,0,0,0,0,0,0,0,0,0,0],"sum_hessian":[2.2463293E2,1.4214331E0,2.232115E2,1.6188133E2,6.1330162E1,2.8491703E1,1.3338963E2,3.9903652E1,2.1426508E1,2.0383162E1,8.1085415E0,4.2511257E1,9.087837E1,2.0844225E1,1.9059427E1,6.8321266E0,1.4594382E1],"tree_param":{"num_deleted":"0","num_feature":"15","num_nodes":"17","size_leaf_vector":"1"}},{"base_weights":[-1.0431794E-2,2.4819938E-2,-1.15030184E-1,-8.20491E-2,1.18074685E-1,1.2551838E-1,-3.548055E-1,-1.2119452E-1,2.907209E-1,9.92395E-1,5.0409433E-2,7.155336E-1,-9.99203E-2,-7.820961E-1,-9.462217E-2,-3.703409E-3,-1.4569558E-1,5.682841E-1,-1.6577603E-2,-1.15949154E-1,4.7925573E-2,-6.592972E-2,3.4735766E-1,1.0504948E-1,-1.3042481E-1,-8.353533E-2,-2.767927E-1,5.1009965E-1,-9.283639E-2],"categories":[],"categories_nodes":[],"categories_segments":[],"categories_sizes":[],"default_left":[0,0,0,0,0,0,0,0,0,0,0,0,0,0,0,0,0,0,0,0,0,0,0,0,0,0,0,0,0],"id":32,"left_children":[1,3,5,7,9,11,13,15,-1,17,19,21,23,25,27,-1,-1,-1,-1,-1,-1,-1,-1,-1,-1,-1,-1,-1,-1],"loss_changes":[8.3161795E-1,1.693252E0,3.322528E0,3.380729E0,5.3112173E0,3.9434094E0,3.1193082E0,3.062574E0,0E0,6.204744E0,4.130287E0,3.6344686E0,3.4585333E0,5.028405E-1,7.8491526E0,0E0,0E0,0E0,0E0,0E0,0E0,0E0,0E0,0E0,0E0,0E0,0E0,0E0,0E0],"parents":[2147483647,0,0,1,1,2,2,3,3,4,4,5,5,6,6,7,7,9,9,10,10,11,11,12,12,13,13,14,14],"right_children":[2,4,6,8,10,12,14,16,-1,18,20,22,24,26,28,-1,-1,-1,-1,-1,-1,-1,-1,-1,-1,-1,-1,-1,-1],"split_conditions":[6.091355E-1,-1.5969831E-1,-5.1844364E-1,5.405896E-1,-2.6566178E-2,2.36401E1,5.325907E-1,4.3030974E-2,2.907209E-1,-4.759231E-1,2.0013498E1,1.1136582E1,4.0725975E1,2.474854E1,6.6392785E-1,-3.703409E-3,-1.4569558E-1,5.682841E-1,-1.6577603E-2,-1.15949154E-1,4.7925573E-2,-6.592972E-2,3.4735766E-1,1.0504948E-1,-1.3042481E-1,-8.353533E-2,-2.767927E-1,5.1009965E-1,-9.283639E-2],"split_indices":[0,1,1,0,1,6,1,0,0,2,6,6,5,6,1,0,0,0,0,0,0,0,0,0,0,0,0,0,0],"split_type":[0,0,0,0,0,0,0,0,0,0,0,0,0,0,0,0,0,0,0,0,0,0,0,0,0,0,0,0,0],"sum_hessian":[2.2376302E2,1.6793E2,5.5833027E1,7.830891E1,8.9621086E1,2.8109446E1,2.7723581E1,7.63502E1,1.9587094E0,5.4560328E0,8.4165054E1,7.17007E0,2.0939375E1,9.7331705E0,1.7990412E1,5.9587505E1,1.6762691E1,2.497722E0,2.9583108E0,1.6339909E1,6.782515E1,2.4637063E0,4.7063637E0,8.912788E0,1.2026587E1,2.773956E0,6.959214E0,1.1839191E0,1.6806492E1],"tree_param":{"num_deleted":"0","num_feature":"15","num_nodes":"29","size_leaf_vector":"1"}},{"base_weights":[-9.5193675E-3,-3.2559088E-1,9.1511523E-4,1.9661734E-1,-2.3455481E-1,5.8046794E-1,-1.0365681E-2,-1.0601742E-1,2.01743E-1,-1.5968874E-2,2.754487E-1,-5.946451E-1,1.49415E-3,-2.1657065E-2,-2.2030394E-1,2.2625923E-1,-3.1741841E-3],"categories":[],"categories_nodes":[],"categories_segments":[],"categories_sizes":[],"default_left":[0,1,0,0,0,0,0,0,0,0,0,1,0,0,0,0,0],"id":33,"left_children":[1,3,5,7,-1,9,11,-1,-1,-1,-1,13,15,-1,-1,-1,-1],"loss_changes":[7.378612E-1,1.8572469E0,1.4279063E0,1.3193634E0,0E0,9.412421E-1,1.4859872E0,0E0,0E0,0E0,0E0,2.5836813E-1,1.9261585E0,0E0,0E0,0E0,0E0],"parents":[2147483647,0,0,1,1,2,2,3,3,5,5,6,6,11,11,12,12],"right_children":[2,4,6,8,-1,10,12,-1,-1,-1,-1,14,16,-1,-1,-1,-1],"split_conditions":[3.9110184E0,3.721611E1,4.678847E0,6.184485E1,-2.3455481E-1,5.3131042E1,6.803731E0,-1.0601742E-1,2.01743E-1,-1.5968874E-2,2.754487E-1,-1.4756384E0,7.7366414E0,-2.1657065E-2,-2.2030394E-1,2.2625923E-1,-3.1741841E-3],"split_indices":[7,5,7,4,0,3,7,0,0,0,0,2,7,0,0,0,0],"split_type":[0,0,0,0,0,0,0,0,0,0,0,0,0,0,0,0,0],"sum_hessian":[2.2263664E2,6.149785E0,2.1648686E2,3.1329966E0,3.0167887E0,3.1700242E0,2.1331683E2,1.5726521E0,1.5603443E0,1.3948685E0,1.7751555E0,3.2662106E0,2.1005063E2,1.0091057E0,2.2571049E0,2.3460257E0,2.0770459E2],"tree_param":{"num_deleted":"0","num_feature":"15","num_nodes":"17","size_leaf_vector":"1"}},{"base_weights":[-7.173021E-3,-9.242133E-2,3.2541286E-2,1.8181889E-1,-1.950271E-1,2.3585542E-1,-1.8267207E-2,-2.8285614E-1,4.6854606E-1,2.9760793E-1,-3.5061362E-1,4.6695182E-1,-5.8095366E-1,3.1152561E-2,-3.5872668E-1,1.053407E-2,-2.2784938E-1,2.3594531E-1,-1.0936744E-1,2.5779185E-1,-4.2542666E-2,-1.998044E-1,-3.6109623E-2,1.9041365E-1,-1.7689943E-1,6.554791E-2,-2.2898293E-1,-3.2608382E-2,6.379622E-2,-1.8070713E-1,1.2058078E-1],"categories":[],"categories_nodes":[],"categories_segments":[],"categories_sizes":[],"default_left":[1,0,0,0,0,0,0,0,1,0,0,0,0,0,0,0,0,0,0,0,0,0,0,0,0,0,0,0,0,0,0],"id":34,"left_children":[1,3,5,7,9,11,13,15,17,19,21,23,25,27,29,-1,-1,-1,-1,-1,-1,-1,-1,-1,-1,-1,-1,-1,-1,-1,-1],"loss_changes":[7.5691706E-1,2.034177E0,1.5812125E0,2.7782469E0,4.1033125E0,6.0459824E0,2.081696E0,1.2695901E0,3.6391284E0,3.3462143E0,2.8326402E0,4.69943E0,1.2150922E0,2.7740815E0,3.1476471E0,0E0,0E0,0E0,0E0,0E0,0E0,0E0,0E0,0E0,0E0,0E0,0E0,0E0,0E0,0E0,0E0],"parents":[2147483647,0,0,1,1,2,2,3,3,4,4,5,5,6,6,7,7,8,8,9,9,10,10,11,11,12,12,13,13,14,14],"right_children":[2,4,6,8,10,12,14,16,18,20,22,24,26,28,30,-1,-1,-1,-1,-1,-1,-1,-1,-1,-1,-1,-1,-1,-1,-1,-1],"split_conditions":[2.9973085E1,2.7278646E1,4.0725975E1,-3.2078385E-1,1E0,1.4511803E0,8.692699E1,-7.880476E-1,2.1821186E1,-9.7493833E-1,5.3863163E1,8.2047905E1,-3.6122608E0,5.6296925E1,9.770798E1,1.053407E-2,-2.2784938E-1,2.3594531E-1,-1.0936744E-1,2.5779185E-1,-4.2542666E-2,-1.998044E-1,-3.6109623E-2,1.9041365E-1,-1.7689943E-1,6.554791E-2,-2.2898293E-1,-3.2608382E-2,6.379622E-2,-1.8070713E-1,1.2058078E-1],"split_indices":[5,3,5,0,8,1,6,0,5,2,3,3,2,3,6,0,0,0,0,0,0,0,0,0,0,0,0,0,0,0,0],"split_type":[0,0,0,0,0,0,0,0,0,0,0,0,0,0,0,0,0,0,0,0,0,0,0,0,0,0,0,0,0,0,0],"sum_hessian":[2.216827E2,7.003109E1,1.5165161E2,1.8857521E1,5.117357E1,2.9592575E1,1.2205904E2,7.200983E0,1.1656537E1,1.2063617E1,3.910995E1,2.3400337E1,6.192239E0,1.07380585E2,1.4678449E1,4.8751087E0,2.3258743E0,8.477298E0,3.1792395E0,4.8756304E0,7.1879864E0,1.5704651E1,2.34053E1,2.0538683E1,2.861654E0,1.1131082E0,5.07913E0,6.087638E1,4.6504204E1,1.1275248E1,3.403201E0],"tree_param":{"num_deleted":"0","num_feature":"15","num_nodes":"31","size_leaf_vector":"1"}},{"base_weights":[-1.2046057E-2,1.8399864E-2,-1.13945186E-1,-2.8688115E-1,4.1893635E-2,-3.697575E-1,3.447794E-2,2.0642556E-1,-5.220969E-1,-1.391526E-1,9.647356E-2,-5.7818E-1,2.5326177E-1,1.7685062E-1,-3.869184E-1,1.1836388E-1,-2.5042033E-1,-6.372119E-2,3.615776E-1,1.608464E-2,1.4171633E-1,-4.979654E-2,-2.5138974E-1,2.136276E-1,-7.469081E-2,-1.289567E-1,1.016147E-1,2.2328933E-1,-1.9041555E-1],"categories":[],"categories_nodes":[],"categories_segments":[],"categories_sizes":[],"default_left":[0,0,0,0,0,0,0,0,0,0,0,0,0,0,0,0,0,0,0,0,0,0,0,0,0,0,0,0,0],"id":35,"left_children":[1,3,5,7,9,11,13,-1,15,17,19,21,23,25,27,-1,-1,-1,-1,-1,-1,-1,-1,-1,-1,-1,-1,-1,-1],"loss_changes":[6.912791E-1,1.2449263E0,1.958373E0,3.2054782E0,1.5993015E0,2.6006515E0,2.0688462E0,0E0,3.3577452E0,3.9573598E0,1.970898E0,1.4100571E0,1.429317E0,2.6605086E0,2.920701E0,0E0,0E0,0E0,0E0,0E0,0E0,0E0,0E0,0E0,0E0,0E0,0E0,0E0,0E0],"parents":[2147483647,0,0,1,1,2,2,3,3,4,4,5,5,6,6,8,8,9,9,10,10,11,11,12,12,13,13,14,14],"right_children":[2,4,6,8,10,12,14,-1,16,18,20,22,24,26,28,-1,-1,-1,-1,-1,-1,-1,-1,-1,-1,-1,-1,-1,-1],"split_conditions":[3E0,9.397374E0,3.6275322E1,1.1492934E1,1E0,7.8506805E1,3E0,2.0642556E-1,2.0574926E1,9.8749565E1,2.6709478E0,-4.0179503E-1,1.5022392E1,2.3896654E1,-3.3175492E0,1.1836388E-1,-2.5042033E-1,-6.372119E-2,3.615776E-1,1.608464E-2,1.4171633E-1,-4.979654E-2,-2.5138974E-1,2.136276E-1,-7.469081E-2,-1.289567E-1,1.016147E-1,2.2328933E-1,-1.9041555E-1],"split_indices":[12,3,5,6,9,4,13,0,4,7,1,0,5,3,1,0,0,0,0,0,0,0,0,0,0,0,0,0,0],"split_type":[0,0,0,0,0,0,0,0,0,0,0,0,0,0,0,0,0,0,0,0,0,0,0,0,0,0,0,0,0],"sum_hessian":[2.2114404E2,1.7090086E2,5.0243168E1,1.1411211E1,1.5948965E2,1.7900246E1,3.2342922E1,1.8437116E0,9.5675E0,3.6584904E1,1.22904755E2,1.3467012E1,4.4332333E0,2.46089E1,7.7340236E0,2.3666291E0,7.2008705E0,3.5493046E1,1.0918579E0,1.113521E2,1.155266E1,5.839947E0,7.6270657E0,2.0983539E0,2.3348794E0,4.8340726E0,1.9774826E1,1.0297152E0,6.7043085E0],"tree_param":{"num_deleted":"0","num_feature":"15","num_nodes":"29","size_leaf_vector":"1"}},{"base_weights":[-1.0708073E-2,-2.1528544E-1,5.591448E-3,-3.5546687E-1,1.9754164E-1,2.0954262E-1,-3.9158612E-3,2.5704712E-1,-5.3978866E-1,1.8431157E-2,-2.7569702E-1,-1.708069E-1,2.2438622E-1,6.505382E-2,-2.0834386E-1,1.7366078E-2,-4.4798844E-2,5.795249E-2,-1.8141249E-1],"categories":[],"categories_nodes":[],"categories_segments":[],"categories_sizes":[],"default_left":[0,0,0,0,0,0,0,0,0,0,1,0,0,0,0,0,0,0,0],"id":36,"left_children":[1,3,5,7,-1,-1,9,11,13,15,17,-1,-1,-1,-1,-1,-1,-1,-1],"loss_changes":[7.380413E-1,2.2344756E0,1.3573884E0,1.8010178E0,0E0,0E0,1.2431768E0,2.08235E0,1.5130167E0,1.2616531E0,2.515739E0,0E0,0E0,0E0,0E0,0E0,0E0,0E0,0E0],"parents":[2147483647,0,0,1,1,2,2,3,3,6,6,7,7,8,8,9,9,10,10],"right_children":[2,4,6,8,-1,-1,10,12,14,16,18,-1,-1,-1,-1,-1,-1,-1,-1],"split_conditions":[-3.055162E0,5.2748165E0,-2.9747488E0,1E0,1.9754164E-1,2.0954262E-1,9.212086E1,2E0,-4.782157E0,8.176347E1,-2.3386335E0,-1.708069E-1,2.2438622E-1,6.505382E-2,-2.0834386E-1,1.7366078E-2,-4.4798844E-2,5.795249E-2,-1.8141249E-1],"split_indices":[1,2,1,13,0,0,6,10,1,4,2,0,0,0,0,0,0,0,0],"split_type":[0,0,0,0,0,0,0,0,0,0,0,0,0,0,0,0,0,0,0],"sum_hessian":[2.1997308E2,1.5331935E1,2.0464114E2,1.3723394E1,1.6085405E0,1.7890579E0,2.028521E2,3.0831897E0,1.0640205E1,1.8830133E2,1.4550763E1,1.0894241E0,1.9937655E0,1.7378937E0,8.902311E0,1.5297739E2,3.532394E1,6.170327E0,8.380436E0],"tree_param":{"num_deleted":"0","num_feature":"15","num_nodes":"19","size_leaf_vector":"1"}},{"base_weights":[-8.510802E-3,2.9430503E-2,-9.399334E-2,-9.543728E-3,5.046723E-1,6.450939E-1,-1.4727046E-1,-6.667619E-1,3.0711753E-2,1.2641721E0,-5.6601727E-1,4.5253098E-1,-8.401543E-2,-5.598843E-1,-5.3463284E-2,-2.733331E-1,1.8891122E-2,8.1391945E-2,-1.31074665E-2,-8.209759E-2,5.074251E-1,5.3862497E-2,-2.4591057E-1,1.457761E-1,-1.8362358E-1,1.6141778E-1,-2.2313435E-1,-1.7090638E-1,1.7946996E-2],"categories":[],"categories_nodes":[],"categories_segments":[],"categories_sizes":[],"default_left":[0,0,0,0,0,0,0,0,1,0,0,0,0,0,0,0,0,0,0,0,0,0,0,0,0,0,0,0,0],"id":37,"left_children":[1,3,5,7,9,11,13,15,17,19,21,-1,23,25,27,-1,-1,-1,-1,-1,-1,-1,-1,-1,-1,-1,-1,-1,-1],"loss_changes":[7.175238E-1,2.8460119E0,2.77198E0,3.7971447E0,1.0184995E1,3.1211243E0,2.4560552E0,1.5343018E0,2.4368434E0,5.1420345E0,1.1918032E0,0E0,1.3586833E0,2.7810202E0,3.1590683E0,0E0,0E0,0E0,0E0,0E0,0E0,0E0,0E0,0E0,0E0,0E0,0E0,0E0,0E0],"parents":[2147483647,0,0,1,1,2,2,3,3,4,4,5,5,6,6,7,7,8,8,9,9,10,10,12,12,13,13,14,14],"right_children":[2,4,6,8,10,12,14,16,18,20,22,-1,24,26,28,-1,-1,-1,-1,-1,-1,-1,-1,-1,-1,-1,-1,-1,-1],"split_conditions":[6.67207E1,6.247352E1,-4.703317E0,-5.121678E0,4.9469536E1,3.1084827E1,1.6855856E1,3E0,-2.4459333E0,2.1301102E1,-6.668487E-1,4.5253098E-1,-6.5463037E0,1.2328686E0,-2.2247138E0,-2.733331E-1,1.8891122E-2,8.1391945E-2,-1.31074665E-2,-8.209759E-2,5.074251E-1,5.3862497E-2,-2.4591057E-1,1.457761E-1,-1.8362358E-1,1.6141778E-1,-2.2313435E-1,-1.7090638E-1,1.7946996E-2],"split_indices":[3,3,2,2,4,4,6,14,2,7,0,0,2,6,2,0,0,0,0,0,0,0,0,0,0,0,0,0,0],"split_type":[0,0,0,0,0,0,0,0,0,0,0,0,0,0,0,0,0,0,0,0,0,0,0,0,0,0,0,0,0],"sum_hessian":[2.1937843E2,1.523942E2,6.698424E1,1.4174936E2,1.0644843E1,3.7569964E0,6.3227238E1,7.2829742E0,1.3446638E2,6.1216836E0,4.5231595E0,1.2307649E0,2.5262315E0,1.0791597E1,5.2435642E1,5.2698336E0,2.0131407E0,3.1136194E1,1.0333019E2,1.4091288E0,4.712555E0,1.2225235E0,3.300636E0,1.253328E0,1.2729037E0,1.2719045E0,9.519693E0,8.711289E0,4.3724354E1],"tree_param":{"num_deleted":"0","num_feature":"15","num_nodes":"29","size_leaf_vector":"1"}},{"base_weights":[-1.04393605E-2,-4.8138183E-2,8.733851E-2,-2.4881499E-2,-6.0114276E-1,-1.4023332E-1,3.234029E-1,5.63029E-2,-1.2781246E-1,6.341512E-4,-2.4776006E-1,-4.7925562E-1,1.3637243E-1,5.5431205E-1,-3.0344343E-1,1.8538758E-1,7.2504715E-3,2.4075232E-2,-1.1391597E-1,1.0215543E-1,-1.7921354E-1,1.7850499E-1,-1.4816584E-1,-9.846874E-2,2.5768065E-1,1.417902E-1,-1.972868E-1],"categories":[],"categories_nodes":[],"categories_segments":[],"categories_sizes":[],"default_left":[0,0,0,0,0,0,0,1,0,0,0,0,0,1,0,0,0,0,0,0,0,0,0,0,0,0,0],"id":38,"left_children":[1,3,5,7,9,11,13,15,17,-1,-1,19,21,23,25,-1,-1,-1,-1,-1,-1,-1,-1,-1,-1,-1,-1],"loss_changes":[8.1455386E-1,2.0339277E0,3.3508089E0,1.293437E0,8.6750007E-1,3.068589E0,4.583437E0,1.5507094E0,3.6038184E0,0E0,0E0,1.6182499E0,5.616948E0,6.3700757E0,2.7455792E0,0E0,0E0,0E0,0E0,0E0,0E0,0E0,0E0,0E0,0E0,0E0,0E0],"parents":[2147483647,0,0,1,1,2,2,3,3,4,4,5,5,6,6,7,7,8,8,11,11,12,12,13,13,14,14],"right_children":[2,4,6,8,10,12,14,16,18,-1,-1,20,22,24,26,-1,-1,-1,-1,-1,-1,-1,-1,-1,-1,-1,-1],"split_conditions":[7.10333E1,6.809995E1,-6.289387E-2,-1.0867137E-2,-7.15513E-1,-3.8916934E-1,1.0469118E0,1.0828301E0,3.2870792E1,6.341512E-4,-2.4776006E-1,7.502276E0,4.5332638E1,1E0,2.2340462E1,1.8538758E-1,7.2504715E-3,2.4075232E-2,-1.1391597E-1,1.0215543E-1,-1.7921354E-1,1.7850499E-1,-1.4816584E-1,-9.846874E-2,2.5768065E-1,1.417902E-1,-1.972868E-1],"split_indices":[4,4,0,0,0,1,0,5,4,0,0,5,7,9,3,0,0,0,0,0,0,0,0,0,0,0,0],"split_type":[0,0,0,0,0,0,0,0,0,0,0,0,0,0,0,0,0,0,0,0,0,0,0,0,0,0,0],"sum_hessian":[2.1883865E2,1.5830928E2,6.052938E1,1.5292307E2,5.386207E0,3.1025753E1,2.9503628E1,8.574595E1,6.7177124E1,1.7307414E0,3.6554658E0,1.36109E1,1.7414852E1,2.1645765E1,7.8578615E0,3.653803E0,8.209214E1,3.71634E1,3.0013723E1,1.4770951E0,1.2133804E1,1.0112107E1,7.302745E0,5.5343637E0,1.6111403E1,2.35755E0,5.500312E0],"tree_param":{"num_deleted":"0","num_feature":"15","num_nodes":"27","size_leaf_vector":"1"}},{"base_weights":[-1.3030253E-2,-4.9443297E-2,7.9544865E-2,1.4672187E-1,-1.2368602E-1,2.089429E-1,-3.8218302E-1,3.5848364E-1,-3.4899655E-1,5.460885E-2,-3.02101E-1,-1.4600538E-1,4.1744238E-1,-5.6864774E-1,1.6641992E-1,8.408312E-3,3.8899457E-1,-1.7293283E-1,9.0470016E-2,-1.3367069E-1,4.3287642E-2,-1.18623264E-1,8.859318E-2,-7.89323E-2,1.8015274E-1,8.8580595E-3,2.3581323E-1,4.074693E-2,-2.2837056E-1],"categories":[],"categories_nodes":[],"categories_segments":[],"categories_sizes":[],"default_left":[0,0,0,0,0,0,0,0,0,0,0,1,0,0,0,0,0,0,0,0,0,0,0,0,0,0,0,0,0],"id":39,"left_children":[1,3,5,7,9,11,13,15,17,19,21,23,25,27,-1,-1,-1,-1,-1,-1,-1,-1,-1,-1,-1,-1,-1,-1,-1],"loss_changes":[7.4298763E-1,2.318764E0,3.800581E0,4.725999E0,3.6791234E0,3.708693E0,2.7587445E0,9.637371E0,2.1899695E0,2.6855803E0,3.3334002E0,1.8172082E0,4.45361E0,1.7528884E0,0E0,0E0,0E0,0E0,0E0,0E0,0E0,0E0,0E0,0E0,0E0,0E0,0E0,0E0,0E0],"parents":[2147483647,0,0,1,1,2,2,3,3,4,4,5,5,6,6,7,7,8,8,9,9,10,10,11,11,12,12,13,13],"right_children":[2,4,6,8,10,12,14,16,18,20,22,24,26,28,-1,-1,-1,-1,-1,-1,-1,-1,-1,-1,-1,-1,-1,-1,-1],"split_conditions":[3E0,1E0,7.771602E1,6.999701E1,2E0,3.2543377E1,1.18189E0,5.5869293E1,3E0,1.4270767E1,8.805955E1,4.351021E0,2E0,1.8521116E1,1.6641992E-1,8.408312E-3,3.8899457E-1,-1.7293283E-1,9.0470016E-2,-1.3367069E-1,4.3287642E-2,-1.18623264E-1,8.859318E-2,-7.89323E-2,1.8015274E-1,8.8580595E-3,2.3581323E-1,4.074693E-2,-2.2837056E-1],"split_indices":[8,13,5,6,14,5,0,6,14,4,6,2,14,7,0,0,0,0,0,0,0,0,0,0,0,0,0,0,0],"split_type":[0,0,0,0,0,0,0,0,0,0,0,0,0,0,0,0,0,0,0,0,0,0,0,0,0,0,0,0,0],"sum_hessian":[2.1824278E2,1.5696776E2,6.127502E1,4.282876E1,1.14139E2,4.8289494E1,1.2985529E1,3.0203304E1,1.2625455E1,5.743579E1,5.670321E1,1.7980064E1,3.0309427E1,1.1157944E1,1.8275859E0,2.3097424E1,7.1058817E0,9.4392805E0,3.1861746E0,8.129278E0,4.930651E1,4.9335594E1,7.367614E0,1.61018E1,1.8782635E0,1.529408E1,1.50153475E1,2.4587524E0,8.699191E0],"tree_param":{"num_deleted":"0","num_feature":"15","num_nodes":"29","size_leaf_vector":"1"}},{"base_weights":[-1.3271427E-2,-2.5542974E-2,2.3982222E-1,1.26274945E-2,-1.4633633E-1,1.1313605E0,-2.6481453E-1,-1.5151207E-1,7.1793236E-2,6.9833376E-2,-3.591032E-1,5.9150837E-2,4.74946E-1,3.7089652E-1,-2.4846686E-1,-1.2740277E-1,3.3420235E-2,-8.629338E-3,7.749284E-2,-1.8919116E-1,6.128473E-2,7.114363E-2,-1.8684289E-1,-1.9191691E-1,3.6720675E-1],"categories":[],"categories_nodes":[],"categories_segments":[],"categories_sizes":[],"default_left":[0,0,0,0,0,0,0,0,0,1,0,0,0,0,0,0,0,0,0,0,0,0,0,0,0],"id":40,"left_children":[1,3,5,7,9,11,13,15,17,19,21,-1,-1,23,-1,-1,-1,-1,-1,-1,-1,-1,-1,-1,-1],"loss_changes":[6.818719E-1,9.6279204E-1,4.8695602E0,1.5578161E0,2.3304675E0,1.3174601E0,2.9205627E0,3.101467E0,2.2161722E0,2.5492263E0,4.1451683E0,0E0,0E0,4.33438E0,0E0,0E0,0E0,0E0,0E0,0E0,0E0,0E0,0E0,0E0,0E0],"parents":[2147483647,0,0,1,1,2,2,3,3,4,4,5,5,6,6,7,7,8,8,9,9,10,10,13,13],"right_children":[2,4,6,8,10,12,14,16,18,20,22,-1,-1,24,-1,-1,-1,-1,-1,-1,-1,-1,-1,-1,-1],"split_conditions":[6.00001E0,6.091355E-1,1E0,-9.355963E-1,-6.7308986E-1,3E0,4.1658558E1,2E0,1.6123862E0,-4.0149918E0,1E0,5.9150837E-2,4.74946E-1,2.430579E1,-2.4846686E-1,-1.2740277E-1,3.3420235E-2,-8.629338E-3,7.749284E-2,-1.8919116E-1,6.128473E-2,7.114363E-2,-1.8684289E-1,-1.9191691E-1,3.6720675E-1],"split_indices":[9,0,14,0,1,8,6,13,2,2,11,0,0,6,0,0,0,0,0,0,0,0,0,0,0],"split_type":[0,0,0,0,0,0,0,0,0,0,0,0,0,0,0,0,0,0,0,0,0,0,0,0,0],"sum_hessian":[2.1657198E2,2.0741432E2,9.157655E0,1.5829034E2,4.912398E1,2.8610778E0,6.2965765E0,4.1526196E1,1.1676415E2,2.4700361E1,2.442362E1,1.4008653E0,1.4602126E0,3.1190019E0,3.1775749E0,2.006431E1,2.1461885E1,7.641293E1,4.035122E1,3.383262E0,2.13171E1,7.520424E0,1.6903196E1,1.5422194E0,1.5767825E0],"tree_param":{"num_deleted":"0","num_feature":"15","num_nodes":"25","size_leaf_vector":"1"}},{"base_weights":[-1.2248472E-2,-3.3535664E-3,-3.622884E-1,-1.2975972E-2,4.0835136E-1,7.353928E-2,-2.2571589E-1,-2.114068E-3,-4.0318942E-1,-1.6048199E-1,7.9713255E-1,-4.956883E-2,7.9448065E-3,-2.0492347E-1,1.3179006E-1,4.2068407E-2,3.1391707E-1],"categories":[],"categories_nodes":[],"categories_segments":[],"categories_sizes":[],"default_left":[1,1,0,1,0,0,0,0,0,0,0,0,0,0,0,0,0],"id":41,"left_children":[1,3,5,7,9,-1,-1,11,13,-1,15,-1,-1,-1,-1,-1,-1],"loss_changes":[6.7288333E-1,8.4573966E-1,1.4535315E0,8.8189775E-1,2.2145698E0,0E0,0E0,9.542513E-1,1.6288579E0,0E0,4.8437762E-1,0E0,0E0,0E0,0E0,0E0,0E0],"parents":[2147483647,0,0,1,1,2,2,3,3,4,4,7,7,8,8,10,10],"right_children":[2,4,6,8,10,-1,-1,12,14,-1,16,-1,-1,-1,-1,-1,-1],"split_conditions":[5.9626026E0,5.3910494E0,-4.3578973E-1,4.641933E0,3.247333E1,7.353928E-2,-2.2571589E-1,-2.1916783E0,7.336239E1,-1.6048199E-1,4.4075172E1,-4.956883E-2,7.9448065E-3,-2.0492347E-1,1.3179006E-1,4.2068407E-2,3.1391707E-1],"split_indices":[2,2,0,2,7,0,0,1,7,0,4,0,0,0,0,0,0],"split_type":[0,0,0,0,0,0,0,0,0,0,0,0,0,0,0,0,0],"sum_hessian":[2.1550317E2,2.1114726E2,4.3559074E0,2.0727138E2,3.8758833E0,1.8487874E0,2.5071201E0,2.0263626E2,4.6351247E0,1.0214996E0,2.8543837E0,2.951356E1,1.731227E2,3.6212885E0,1.0138361E0,1.2149731E0,1.6394106E0],"tree_param":{"num_deleted":"0","num_feature":"15","num_nodes":"17","size_leaf_vector":"1"}},{"base_weights":[-9.892431E-3,5.769385E-3,-1.9687164E-1,2.7764311E-2,-2.5043708E-1,-6.878036E-1,1.07554756E-1,-2.0113187E-2,1.8320227E-1,1.5514864E-1,-6.2426627E-1,-2.6835218E-1,3.621091E-2,6.681209E-1,-2.9081115E-1,-1.2845593E-2,2.4798156E-1,-1.0806407E-1,8.805638E-2,-1.4101367E-1,2.7161774E-1,-2.3715423E-1,2.0372735E-2,3.1514162E-1,-7.956317E-2,3.3468626E-2,-2.3663779E-1],"categories":[],"categories_nodes":[],"categories_segments":[],"categories_sizes":[],"default_left":[0,0,0,0,0,0,0,0,0,0,1,0,0,0,0,0,0,0,0,0,0,0,0,0,0,0,0],"id":42,"left_children":[1,3,5,7,9,11,13,15,17,19,21,-1,-1,23,25,-1,-1,-1,-1,-1,-1,-1,-1,-1,-1,-1,-1],"loss_changes":[6.333641E-1,1.1350071E0,2.5720038E0,1.3823287E0,2.5115716E0,1.1997344E0,2.6912963E0,2.7755404E0,2.7268748E0,4.3841367E0,1.030256E0,0E0,0E0,2.0445044E0,1.5373638E0,0E0,0E0,0E0,0E0,0E0,0E0,0E0,0E0,0E0,0E0,0E0,0E0],"parents":[2147483647,0,0,1,1,2,2,3,3,4,4,5,5,6,6,7,7,8,8,9,9,10,10,13,13,14,14],"right_children":[2,4,6,8,10,12,14,16,18,20,22,-1,-1,24,26,-1,-1,-1,-1,-1,-1,-1,-1,-1,-1,-1,-1],"split_conditions":[9.3129524E1,2.9434178E0,4.1658558E1,7.10333E1,-3.856531E-1,7.033603E1,3.295477E1,2.6709478E0,-2.9221804E0,-1.5917411E0,3E0,-2.6835218E-1,3.621091E-2,2E0,2E0,-1.2845593E-2,2.4798156E-1,-1.0806407E-1,8.805638E-2,-1.4101367E-1,2.7161774E-1,-2.3715423E-1,2.0372735E-2,3.1514162E-1,-7.956317E-2,3.3468626E-2,-2.3663779E-1],"split_indices":[4,1,6,4,2,7,5,1,2,2,9,0,0,14,8,0,0,0,0,0,0,0,0,0,0,0,0],"split_type":[0,0,0,0,0,0,0,0,0,0,0,0,0,0,0,0,0,0,0,0,0,0,0,0,0,0,0],"sum_hessian":[2.1489294E2,1.9917844E2,1.5714509E1,1.8425229E2,1.492614E1,5.5327687E0,1.018174E1,1.4152945E2,4.2722843E1,7.439564E0,7.4865756E0,4.3215475E0,1.211221E0,3.9484582E0,6.2332816E0,1.3875798E2,2.7714796E0,6.8273044E0,3.589554E1,4.2616863E0,3.1778781E0,5.9221196E0,1.5644563E0,2.7119608E0,1.2364973E0,3.8767812E0,2.3565006E0],"tree_param":{"num_deleted":"0","num_feature":"15","num_nodes":"27","size_leaf_vector":"1"}},{"base_weights":[-1.039015E-2,-3.1329387E-1,-1.0431284E-3,-6.2541723E-1,2.2138172E-1,-3.2462463E-2,1.2186842E-1,-4.4179402E-2,-2.177391E-1,1.7479792E-1,-7.050855E-2,-3.1098246E-3,-4.3869418E-1,1.7911953E-1,-2.1041931E-1,2.422339E-2,-3.8379185E-2,1.7371862E-1,-1.9081257E-1,1.2673542E-1,-1.809494E-2],"categories":[],"categories_nodes":[],"categories_segments":[],"categories_sizes":[],"default_left":[0,1,1,0,0,1,0,0,0,0,0,0,0,0,0,0,0,0,0,0,0],"id":43,"left_children":[1,3,5,7,9,11,13,-1,-1,-1,-1,15,17,19,-1,-1,-1,-1,-1,-1,-1],"loss_changes":[6.0876024E-1,1.2126002E0,8.1375146E-1,1.0072398E-1,6.499155E-1,1.9993962E0,2.1476684E0,0E0,0E0,0E0,0E0,1.6587762E0,2.6379147E0,2.4088717E0,0E0,0E0,0E0,0E0,0E0,0E0,0E0],"parents":[2147483647,0,0,1,1,2,2,3,3,4,4,5,5,6,6,11,11,12,12,13,13],"right_children":[2,4,6,8,10,12,14,-1,-1,-1,-1,16,18,20,-1,-1,-1,-1,-1,-1,-1],"split_conditions":[3.9110184E0,2.4498742E0,7.690656E1,-2.4459333E0,2.6399359E1,7.146293E1,9.327311E1,-4.4179402E-2,-2.177391E-1,1.7479792E-1,-7.050855E-2,5.7313877E1,1.4733052E1,2E0,-2.1041931E-1,2.422339E-2,-3.8379185E-2,1.7371862E-1,-1.9081257E-1,1.2673542E-1,-1.809494E-2],"split_indices":[7,2,5,2,3,5,3,0,0,0,0,4,7,8,0,0,0,0,0,0,0],"split_type":[0,0,0,0,0,0,0,0,0,0,0,0,0,0,0,0,0,0,0,0,0],"sum_hessian":[2.1413026E2,5.4364433E0,2.0869382E2,3.325455E0,2.1109884E0,1.6679312E2,4.19007E1,1.0050482E0,2.3204067E0,1.0238951E0,1.0870931E0,1.5649323E2,1.0299903E1,3.9907875E1,1.9928232E0,9.381891E1,6.2674313E1,1.3586887E0,8.941214E0,1.9413816E1,2.0494059E1],"tree_param":{"num_deleted":"0","num_feature":"15","num_nodes":"21","size_leaf_vector":"1"}},{"base_weights":[-1.0529812E-2,-2.39262E-3,-4.106362E-1,-1.3106101E-2,3.2565168E-1,-2.0706408E-1,4.2200573E-2,-2.3512919E-4,-6.4343816E-1,3.282176E-1,-2.4090043E-1,-4.3780813E-3,2.1485747E-1,-2.2364374E-1,-5.037796E-2,1.440313E-1,-2.1743315E-1],"categories":[],"categories_nodes":[],"categories_segments":[],"categories_sizes":[],"default_left":[1,1,1,1,0,0,0,1,0,0,0,0,0,0,0,0,0],"id":44,"left_children":[1,3,5,7,9,-1,-1,11,13,-1,15,-1,-1,-1,-1,-1,-1],"loss_changes":[6.9819415E-1,7.4750406E-1,7.5594795E-1,1.669099E0,3.1920319E0,0E0,0E0,2.0949016E0,7.4570894E-2,0E0,1.9847362E0,0E0,0E0,0E0,0E0,0E0,0E0],"parents":[2147483647,0,0,1,1,2,2,3,3,4,4,7,7,8,8,10,10],"right_children":[2,4,6,8,10,-1,-1,12,14,-1,16,-1,-1,-1,-1,-1,-1],"split_conditions":[9.6963684E1,9.4050896E1,3E0,9.2561455E1,1E0,-2.0706408E-1,4.2200573E-2,9.1480865E1,6.443494E1,3.282176E-1,-6.026243E-1,-4.3780813E-3,2.1485747E-1,-2.2364374E-1,-5.037796E-2,1.440313E-1,-2.1743315E-1],"split_indices":[5,5,9,5,8,0,0,5,4,0,0,0,0,0,0,0,0],"split_type":[0,0,0,0,0,0,0,0,0,0,0,0,0,0,0,0,0],"sum_hessian":[2.1375186E2,2.1047723E2,3.274616E0,2.0475041E2,5.726823E0,2.0055823E0,1.2690337E0,2.0163356E2,3.116854E0,2.035296E0,3.691527E0,1.9863225E2,3.0013163E0,2.09874E0,1.0181139E0,1.4856368E0,2.20589E0],"tree_param":{"num_deleted":"0","num_feature":"15","num_nodes":"17","size_leaf_vector":"1"}},{"base_weights":[-8.444497E-3,-1.6153929E-1,-3.2954714E-3,1.7969926E-1,-1.882029E-2,7.082125E-1,-2.4786338E-1,-1.2460051E-1,4.423744E-2,-2.2104096E-2,3.2846695E-1,-1.7531922E-1,1.703212E-1,-1.0358431E-2,-1.4127773E-1,1.3565567E-1,-5.003103E-3],"categories":[],"categories_nodes":[],"categories_segments":[],"categories_sizes":[],"default_left":[0,0,0,0,0,0,0,0,0,0,0,0,0,0,0,0,0],"id":45,"left_children":[1,-1,3,5,7,9,11,13,15,-1,-1,-1,-1,-1,-1,-1,-1],"loss_changes":[5.8224434E-1,0E0,6.083508E-1,3.9600716E0,1.3208705E0,2.4234884E0,3.076231E0,2.28936E0,3.0960398E0,0E0,0E0,0E0,0E0,0E0,0E0,0E0,0E0],"parents":[2147483647,0,0,2,2,3,3,4,4,5,5,6,6,7,7,8,8],"right_children":[2,-1,4,6,8,10,12,14,16,-1,-1,-1,-1,-1,-1,-1,-1],"split_conditions":[1.2049923E0,-1.6153929E-1,7.984697E0,-4.2483136E-1,-4.5863864E-1,3.0977755E1,3E0,3E0,-2.8050205E-1,-2.2104096E-2,3.2846695E-1,-1.7531922E-1,1.703212E-1,-1.0358431E-2,-1.4127773E-1,1.3565567E-1,-5.003103E-3],"split_indices":[4,0,4,0,0,6,14,14,0,0,0,0,0,0,0,0,0],"split_type":[0,0,0,0,0,0,0,0,0,0,0,0,0,0,0,0,0],"sum_hessian":[2.12998E2,1.0527838E0,2.1194522E2,1.5747752E1,1.9619748E2,6.7489424E0,8.998811E0,7.2911476E1,1.23285995E2,2.5010562E0,4.247886E0,6.570967E0,2.427843E0,5.873528E1,1.4176196E1,1.5182757E1,1.0810323E2],"tree_param":{"num_deleted":"0","num_feature":"15","num_nodes":"17","size_leaf_vector":"1"}},{"base_weights":[-7.672494E-3,5.284636E-2,-5.5212326E-2,5.740485E-3,6.862344E-1,-6.791034E-1,-1.5115121E-2,5.2624587E-2,-6.404488E-1,-2.0901218E-1,1.2361267E0,-1.3526197E-1,-2.5948155E-1,-5.643146E-1,3.2575134E-2,4.43176E-2,-8.2291044E-2,-2.5545377E-1,2.3662318E-2,1.0430366E-1,-1.799154E-1,5.448295E-1,9.494371E-2,-1.5840706E-1,9.599623E-2,6.6886276E-2,-2.1054953E-1,2.0976219E-1,2.2659174E-3],"categories":[],"categories_nodes":[],"categories_segments":[],"categories_sizes":[],"default_left":[0,0,0,0,0,0,1,0,0,0,0,0,0,0,0,0,0,0,0,0,0,0,0,0,0,0,0,0,0],"id":46,"left_children":[1,3,5,7,9,11,13,15,17,19,21,23,-1,25,27,-1,-1,-1,-1,-1,-1,-1,-1,-1,-1,-1,-1,-1,-1],"loss_changes":[6.168823E-1,2.812465E0,2.9918153E0,2.726089E0,3.4709914E0,6.1311436E-1,2.9984698E0,2.6453867E0,9.914067E-1,9.3465114E-1,1.6586442E0,7.098856E-1,0E0,1.1465878E0,1.7567731E0,0E0,0E0,0E0,0E0,0E0,0E0,0E0,0E0,0E0,0E0,0E0,0E0,0E0,0E0],"parents":[2147483647,0,0,1,1,2,2,3,3,4,4,5,5,6,6,7,7,8,8,9,9,10,10,11,11,13,13,14,14],"right_children":[2,4,6,8,10,12,14,16,18,20,22,24,-1,26,28,-1,-1,-1,-1,-1,-1,-1,-1,-1,-1,-1,-1,-1,-1],"split_conditions":[4.36615E1,4.1278458E1,4.680169E1,9.212712E1,-3.308481E-1,1E0,4.8711395E0,3E0,3E0,-5.035696E-1,6.486914E-1,5.8619034E1,-2.5948155E-1,-1.4582131E0,4.8146492E1,4.43176E-2,-8.2291044E-2,-2.5545377E-1,2.3662318E-2,1.0430366E-1,-1.799154E-1,5.448295E-1,9.494371E-2,-1.5840706E-1,9.599623E-2,6.6886276E-2,-2.1054953E-1,2.0976219E-1,2.2659174E-3],"split_indices":[6,6,6,4,1,14,5,11,14,0,1,7,0,0,6,0,0,0,0,0,0,0,0,0,0,0,0,0,0],"split_type":[0,0,0,0,0,0,0,0,0,0,0,0,0,0,0,0,0,0,0,0,0,0,0,0,0,0,0,0,0],"sum_hessian":[2.1240025E2,9.3395226E1,1.1900502E2,8.786933E1,5.5258913E0,6.2241507E0,1.1278087E2,8.278169E1,5.087643E0,2.3385468E0,3.1873446E0,2.02523E0,4.1989202E0,8.1454315E0,1.0463544E2,6.455213E1,1.8229555E1,3.7914016E0,1.2962415E0,1.009831E0,1.3287158E0,1.3568666E0,1.8304781E0,1.0014145E0,1.0238155E0,1.1188527E0,7.0265784E0,2.8106687E0,1.0182477E2],"tree_param":{"num_deleted":"0","num_feature":"15","num_nodes":"29","size_leaf_vector":"1"}},{"base_weights":[-8.226564E-3,8.490218E-2,-3.9828174E-2,1.8596166E-1,-4.3458986E-1,-6.19464E-1,-8.779781E-3,-1.8270612E-2,5.44018E-1,-7.6571965E-1,3.2566625E-1,-2.681052E-1,5.1338095E-2,4.159086E-2,-2.6200342E-1,-6.2976636E-2,1.9136861E-1,2.4291912E-1,-1.2027943E-1,-2.7660492E-1,1.9378662E-2,7.754866E-4,1.3703685E-1,-1.04027696E-1,2.5512502E-1],"categories":[],"categories_nodes":[],"categories_segments":[],"categories_sizes":[],"default_left":[0,0,0,0,0,0,0,0,0,0,0,0,0,0,0,0,0,0,0,0,0,0,0,0,0],"id":47,"left_children":[1,3,5,7,9,11,13,15,17,19,-1,-1,-1,21,23,-1,-1,-1,-1,-1,-1,-1,-1,-1,-1],"loss_changes":[6.298354E-1,2.9289026E0,2.8670492E0,3.3821902E0,5.4291983E0,1.9091063E0,1.956178E0,3.948431E0,4.5384192E0,1.1090531E0,0E0,0E0,0E0,2.0729399E0,2.6935368E0,0E0,0E0,0E0,0E0,0E0,0E0,0E0,0E0,0E0,0E0],"parents":[2147483647,0,0,1,1,2,2,3,3,4,4,5,5,6,6,7,7,8,8,9,9,13,13,14,14],"right_children":[2,4,6,8,10,12,14,16,18,20,-1,-1,-1,22,24,-1,-1,-1,-1,-1,-1,-1,-1,-1,-1],"split_conditions":[-1.4942055E0,8.41206E1,-1.2156199E0,5.328508E1,9.5753944E1,3E0,8.3099144E1,7.768798E1,7.787805E1,1.0103793E0,3.2566625E-1,-2.681052E-1,5.1338095E-2,7.690656E1,6.00001E0,-6.2976636E-2,1.9136861E-1,2.4291912E-1,-1.2027943E-1,-2.7660492E-1,1.9378662E-2,7.754866E-4,1.3703685E-1,-1.04027696E-1,2.5512502E-1],"split_indices":[1,7,1,7,3,14,5,6,3,0,0,0,0,5,9,0,0,0,0,0,0,0,0,0,0],"split_type":[0,0,0,0,0,0,0,0,0,0,0,0,0,0,0,0,0,0,0,0,0,0,0,0,0],"sum_hessian":[2.1186107E2,5.324967E1,1.586114E2,4.5115204E1,8.134463E0,7.100582E0,1.5151082E2,2.9332926E1,1.5782278E1,7.087001E0,1.0474619E0,5.175156E0,1.9254261E0,1.2707009E2,2.4440725E1,2.3228481E1,6.1044455E0,1.2430122E1,3.3521564E0,5.87135E0,1.2156513E0,1.1707746E2,9.992635E0,2.334997E1,1.0907553E0],"tree_param":{"num_deleted":"0","num_feature":"15","num_nodes":"25","size_leaf_vector":"1"}},{"base_weights":[-8.24111E-3,6.5082614E-3,-1.8743955E-1,-3.5360479E-3,5.024646E-1,2.2413395E-1,-4.4580087E-1,-3.126564E-2,1.3640594E-1,2.9692924E-1,-1.1174569E-1,-4.5156077E-1,6.2273544E-1,8.094138E-2,-6.7833996E-1,1.6420641E-3,-1.5511104E-1,9.216189E-2,-1.0589376E-1,-1.7226991E-1,-2.8951056E-2,-5.0553937E-2,3.0777103E-1,1.8040545E-1,-8.819433E-2,1.379879E-2,-2.6484808E-1],"categories":[],"categories_nodes":[],"categories_segments":[],"categories_sizes":[],"default_left":[0,0,0,0,0,0,1,0,0,0,0,0,0,0,0,0,0,0,0,0,0,0,0,0,0,0,0],"id":48,"left_children":[1,3,5,7,9,11,13,15,17,-1,-1,19,21,23,25,-1,-1,-1,-1,-1,-1,-1,-1,-1,-1,-1,-1],"loss_changes":[5.6081223E-1,9.8108E-1,1.8155813E0,7.558358E-1,2.035456E0,2.1363013E0,1.3100173E0,2.902233E0,2.8013544E0,0E0,0E0,8.114302E-2,1.6889498E0,9.63406E-1,1.1093011E0,0E0,0E0,0E0,0E0,0E0,0E0,0E0,0E0,0E0,0E0,0E0,0E0],"parents":[2147483647,0,0,1,1,2,2,3,3,4,4,5,5,6,6,7,7,8,8,11,11,12,12,13,13,14,14],"right_children":[2,4,6,8,10,12,14,16,18,-1,-1,20,22,24,26,-1,-1,-1,-1,-1,-1,-1,-1,-1,-1,-1,-1],"split_conditions":[9.212086E1,9.084943E1,-2.1540992E0,8.1373856E1,4.6112835E1,9.918366E-2,1E0,7.485378E1,6.6154274E1,2.9692924E-1,-1.1174569E-1,5.482916E1,2E0,2.108548E1,1.9351725E1,1.6420641E-3,-1.5511104E-1,9.216189E-2,-1.0589376E-1,-1.7226991E-1,-2.8951056E-2,-5.0553937E-2,3.0777103E-1,1.8040545E-1,-8.819433E-2,1.379879E-2,-2.6484808E-1],"split_indices":[6,6,2,3,4,1,13,3,6,0,0,5,10,3,4,0,0,0,0,0,0,0,0,0,0,0,0],"split_type":[0,0,0,0,0,0,0,0,0,0,0,0,0,0,0,0,0,0,0,0,0,0,0,0,0,0,0],"sum_hessian":[2.1072105E2,1.955865E2,1.513455E1,1.926772E2,2.9093068E0,5.8877516E0,9.2467985E0,1.6146031E2,3.1216879E1,1.7843164E0,1.1249902E0,2.135265E0,3.7524865E0,3.0316033E0,6.215195E0,1.510268E2,1.0433522E1,2.3416534E1,7.8003454E0,1.1281817E0,1.0070833E0,1.4630884E0,2.289398E0,1.0165911E0,2.0150123E0,1.5389558E0,4.6762395E0],"tree_param":{"num_deleted":"0","num_feature":"15","num_nodes":"27","size_leaf_vector":"1"}},{"base_weights":[-8.404879E-3,2.4300875E-2,-9.838673E-2,-1.634613E-4,8.8620085E-1,-1.6973047E-1,3.4471405E-1,2.6842741E-2,-3.6633313E-1,4.0032914E-1,2.1126274E-2,-2.1854484E-1,5.893118E-1,-2.4035934E-1,1.1915606E0,-4.9954737E-3,1.3252938E-1,1.101304E-1,-2.4512616E-1,-9.076827E-2,9.738952E-2,2.4230555E-1,3.5788912E-2,1.392116E-1,-1.8093997E-1,4.5577303E-1,8.948393E-2],"categories":[],"categories_nodes":[],"categories_segments":[],"categories_sizes":[],"default_left":[0,0,1,0,0,0,0,0,0,0,0,1,0,0,0,0,0,0,0,0,0,0,0,0,0,0,0],"id":49,"left_children":[1,3,5,7,9,11,13,15,17,-1,-1,19,21,23,25,-1,-1,-1,-1,-1,-1,-1,-1,-1,-1,-1,-1],"loss_changes":[6.231163E-1,3.2789118E0,1.8422403E0,1.5149599E0,1.4754283E0,1.9543495E0,4.3269415E0,2.582294E0,3.778771E0,0E0,0E0,2.2441099E0,2.3698008E-1,1.7249558E0,5.713177E-1,0E0,0E0,0E0,0E0,0E0,0E0,0E0,0E0,0E0,0E0,0E0,0E0],"parents":[2147483647,0,0,1,1,2,2,3,3,4,4,5,5,6,6,7,7,8,8,11,11,12,12,13,13,14,14],"right_children":[2,4,6,8,10,12,14,16,18,-1,-1,20,22,24,26,-1,-1,-1,-1,-1,-1,-1,-1,-1,-1,-1,-1],"split_conditions":[1.1107978E0,1.0424316E0,3.2506456E0,7.7535975E-1,3.4918785E1,9.5753944E1,6.641823E1,4.897946E-1,3.4336636E1,4.0032914E-1,2.1126274E-2,8.740994E1,1.7621177E0,2.7278646E1,2E0,-4.9954737E-3,1.3252938E-1,1.101304E-1,-2.4512616E-1,-9.076827E-2,9.738952E-2,2.4230555E-1,3.5788912E-2,1.392116E-1,-1.8093997E-1,4.5577303E-1,8.948393E-2],"split_indices":[1,1,2,1,7,3,7,1,4,0,0,5,1,3,9,0,0,0,0,0,0,0,0,0,0,0,0],"split_type":[0,0,0,0,0,0,0,0,0,0,0,0,0,0,0,0,0,0,0,0,0,0,0,0,0,0,0],"sum_hessian":[2.0992133E2,1.5449638E2,5.542495E1,1.5120438E2,3.292004E0,4.8269947E1,7.155005E0,1.416816E2,9.522784E0,1.7143068E0,1.5776972E0,4.602231E1,2.247639E0,4.6550636E0,2.4999413E0,1.291077E2,1.257389E1,3.6954308E0,5.827354E0,4.0240993E1,5.781314E0,1.0441122E0,1.2035267E0,1.4875493E0,3.1675143E0,1.3163267E0,1.1836145E0],"tree_param":{"num_deleted":"0","num_feature":"15","num_nodes":"27","size_leaf_vector":"1"}},{"base_weights":[-3.2287547E-3,-1.00113764E-1,2.598343E-2,3.8648257E-1,-1.7894372E-1,-1.439825E-1,7.2138354E-2,8.4541464E-1,-3.4501565E-1,3.901779E-2,-4.132699E-1,-2.8371882E-1,5.685705E-1,2.2129592E-1,-3.2968685E-2,-3.9308168E-2,3.6078966E-1,-1.8918556E-1,5.2433796E-2,1.076608E-1,-1.17086284E-1,1.9251981E-1,-1.6184485E-1,-1.4596483E-1,3.388145E-2,3.9242142E-1,-1.2436512E-2,1.6888759E-1,1.3465324E-2,1.3081629E-2,-1.865741E-1],"categories":[],"categories_nodes":[],"categories_segments":[],"categories_sizes":[],"default_left":[0,0,0,0,0,0,0,0,0,0,0,0,0,0,1,0,0,0,0,0,0,0,0,0,0,0,0,0,0,0,0],"id":50,"left_children":[1,3,5,7,9,11,13,15,17,19,21,23,25,27,29,-1,-1,-1,-1,-1,-1,-1,-1,-1,-1,-1,-1,-1,-1,-1,-1],"loss_changes":[5.954778E-1,1.9385595E0,1.2792406E0,2.6788936E0,2.1931162E0,3.633925E0,2.011965E0,1.7827837E0,6.226238E-1,3.2978635E0,3.092823E0,2.4545157E0,2.7839153E0,3.168475E0,3.4492114E0,0E0,0E0,0E0,0E0,0E0,0E0,0E0,0E0,0E0,0E0,0E0,0E0,0E0,0E0,0E0,0E0],"parents":[2147483647,0,0,1,1,2,2,3,3,4,4,5,5,6,6,7,7,8,8,9,9,10,10,11,11,12,12,13,13,14,14],"right_children":[2,4,6,8,10,12,14,16,18,20,22,24,26,28,30,-1,-1,-1,-1,-1,-1,-1,-1,-1,-1,-1,-1,-1,-1,-1,-1],"split_conditions":[1E0,-3.802011E0,2.134561E1,5.2525913E1,2E0,3.7494633E0,3.3116985E1,3.2462288E1,8.9393845E1,4.8922607E1,7.398405E0,2.0953423E-1,-5.2357596E-1,4.1508972E1,3.6222773E0,-3.9308168E-2,3.6078966E-1,-1.8918556E-1,5.2433796E-2,1.076608E-1,-1.17086284E-1,1.9251981E-1,-1.6184485E-1,-1.4596483E-1,3.388145E-2,3.9242142E-1,-1.2436512E-2,1.6888759E-1,1.3465324E-2,1.3081629E-2,-1.865741E-1],"split_indices":[10,2,4,4,14,2,7,6,4,5,3,0,0,4,2,0,0,0,0,0,0,0,0,0,0,0,0,0,0,0,0],"split_type":[0,0,0,0,0,0,0,0,0,0,0,0,0,0,0,0,0,0,0,0,0,0,0,0,0,0,0,0,0,0,0],"sum_hessian":[2.084805E2,4.7735157E1,1.6074535E2,6.110978E0,4.162418E1,3.3876236E1,1.2686911E2,3.6593938E0,2.4515846E0,2.1996937E1,1.9627243E1,2.8825243E1,5.050992E0,5.198776E1,7.488135E1,1.1497613E0,2.5096326E0,1.4446249E0,1.0069596E0,1.2699394E1,9.297542E0,1.6607399E0,1.7966503E1,1.8922562E1,9.902681E0,1.7659442E0,3.2850475E0,1.6956436E1,3.5031322E1,6.708498E1,7.79637E0],"tree_param":{"num_deleted":"0","num_feature":"15","num_nodes":"31","size_leaf_vector":"1"}},{"base_weights":[-4.3721814E-3,3.0069507E-3,-3.2104382E-1,-6.4834594E-3,3.5830173E-1,9.252077E-2,-5.715404E-1,3.3758935E-3,-4.3582729E-1,6.61615E-1,-9.392074E-2,-4.269331E-2,-2.0326309E-1,-3.254328E-3,1.4059392E-1,-2.3158576E-1,1.10467725E-1,2.1132894E-2,2.6858065E-1],"categories":[],"categories_nodes":[],"categories_segments":[],"categories_sizes":[],"default_left":[1,1,0,1,0,0,0,1,0,0,0,0,0,0,0,0,0,0,0],"id":51,"left_children":[1,3,5,7,9,-1,11,13,15,17,-1,-1,-1,-1,-1,-1,-1,-1,-1],"loss_changes":[4.8683286E-1,6.9079417E-1,9.2427313E-1,8.474451E-1,1.2924674E0,0E0,7.3928595E-2,1.3045352E0,1.498803E0,4.8840415E-1,0E0,0E0,0E0,0E0,0E0,0E0,0E0,0E0,0E0],"parents":[2147483647,0,0,1,1,2,2,3,3,4,4,6,6,7,7,8,8,9,9],"right_children":[2,4,6,8,10,-1,12,14,16,18,-1,-1,-1,-1,-1,-1,-1,-1,-1],"split_conditions":[5.9626026E0,5.2748165E0,1.4270767E1,4.641933E0,6.1395763E1,9.252077E-2,-6.3966453E-1,4.172178E0,1.2992097E0,4.4075172E1,-9.392074E-2,-4.269331E-2,-2.0326309E-1,-3.254328E-3,1.4059392E-1,-2.3158576E-1,1.10467725E-1,2.1132894E-2,2.6858065E-1],"split_indices":[2,2,4,2,3,0,1,2,1,4,0,0,0,0,0,0,0,0,0],"split_type":[0,0,0,0,0,0,0,0,0,0,0,0,0,0,0,0,0,0,0],"sum_hessian":[2.069234E2,2.0317938E2,3.7440135E0,1.988496E2,4.329793E0,1.0000155E0,2.743998E0,1.9535564E2,3.4939647E0,2.992408E0,1.3373849E0,1.0073876E0,1.7366104E0,1.9050835E2,4.847292E0,2.4920957E0,1.0018691E0,1.2163587E0,1.7760493E0],"tree_param":{"num_deleted":"0","num_feature":"15","num_nodes":"19","size_leaf_vector":"1"}},{"base_weights":[-3.5629203E-3,2.3984313E-3,-3.319468E-1,-1.632758E-2,1.7023006E-1,-1.8546703E-1,4.409698E-2,-4.252339E-3,-5.830404E-1,-1.8835703E-1,6.681265E-1,1.8868268E-3,-1.6582389E-1,-4.291787E-2,-2.067964E-1,-2.294474E-1,1.2575099E-1,-1.3191381E-1,2.9854578E-1],"categories":[],"categories_nodes":[],"categories_segments":[],"categories_sizes":[],"default_left":[1,1,1,1,0,0,0,0,0,0,0,0,0,0,0,0,0,0,0],"id":52,"left_children":[1,3,5,7,9,-1,-1,11,13,15,17,-1,-1,-1,-1,-1,-1,-1,-1],"loss_changes":[4.069743E-1,6.4636534E-1,5.9908473E-1,1.2644514E0,3.8113647E0,0E0,0E0,1.0574486E0,8.1659675E-2,4.7964616E0,3.648374E0,0E0,0E0,0E0,0E0,0E0,0E0,0E0,0E0],"parents":[2147483647,0,0,1,1,2,2,3,3,4,4,7,7,8,8,9,9,10,10],"right_children":[2,4,6,8,10,-1,-1,12,14,16,18,-1,-1,-1,-1,-1,-1,-1,-1],"split_conditions":[9.6963684E1,8.740994E1,3E0,8.5593346E1,6.649252E1,-1.8546703E-1,4.409698E-2,9.818626E1,-8.8643736E-1,5.4245014E1,-1.8088734E0,1.8868268E-3,-1.6582389E-1,-4.291787E-2,-2.067964E-1,-2.294474E-1,1.2575099E-1,-1.3191381E-1,2.9854578E-1],"split_indices":[5,5,9,5,4,0,0,4,1,3,2,0,0,0,0,0,0,0,0],"split_type":[0,0,0,0,0,0,0,0,0,0,0,0,0,0,0,0,0,0,0],"sum_hessian":[2.0648657E2,2.0377992E2,2.7066443E0,1.841373E2,1.9642622E1,1.5120287E0,1.1946156E0,1.8128214E2,2.855168E0,1.1780182E1,7.8624406E0,1.7883359E2,2.4485526E0,1.0119512E0,1.8432169E0,5.9117503E0,5.868431E0,1.7134264E0,6.1490145E0],"tree_param":{"num_deleted":"0","num_feature":"15","num_nodes":"19","size_leaf_vector":"1"}},{"base_weights":[-6.8510952E-3,1.0994314E-1,-1.2226919E-2,-3.9191905E-1,8.4311067E-4,-2.348467E-1,6.1062723E-2,1.9936341E-1,-1.4997777E-2,1.6092351E-1,-9.447253E-2,-2.1477969E-1,1.1979189E-1,3.148072E-2,-1.7200183E-2],"categories":[],"categories_nodes":[],"categories_segments":[],"categories_sizes":[],"default_left":[0,0,0,0,0,0,0,0,0,0,0,0,0,0,0],"id":53,"left_children":[1,-1,3,5,7,-1,9,11,13,-1,-1,-1,-1,-1,-1],"loss_changes":[4.2037237E-1,0E0,1.0189117E0,1.2576215E0,6.3011265E-1,0E0,9.0032524E-1,2.9956045E0,9.484708E-1,0E0,0E0,0E0,0E0,0E0,0E0],"parents":[2147483647,0,0,2,2,3,3,4,4,6,6,7,7,8,8],"right_children":[2,-1,4,6,8,-1,10,12,14,-1,-1,-1,-1,-1,-1],"split_conditions":[-8.269388E0,1.0994314E-1,-5.4487996E0,5.0952946E1,-3.802011E0,-2.348467E-1,6.354126E1,-1.8524783E0,-1.4942055E0,1.6092351E-1,-9.447253E-2,-2.1477969E-1,1.1979189E-1,3.148072E-2,-1.7200183E-2],"split_indices":[2,0,2,3,2,0,3,1,1,0,0,0,0,0,0],"split_type":[0,0,0,0,0,0,0,0,0,0,0,0,0,0,0],"sum_hessian":[2.0622598E2,1.9739246E0,2.0425206E2,5.8323627E0,1.984197E2,2.7398443E0,3.0925186E0,1.3806705E1,1.8461299E2,1.1772975E0,1.915221E0,2.0126302E0,1.1794075E1,4.7779762E1,1.3683324E2],"tree_param":{"num_deleted":"0","num_feature":"15","num_nodes":"15","size_leaf_vector":"1"}},{"base_weights":[-6.45843E-3,3.0493748E-1,-1.3111364E-2,3.026894E-1,-2.5837314E-1,-1.8552221E-1,-5.597288E-3,-1.6829373E-1,5.6804147E-2,1.03123365E-2,-1.9788152E-1,-4.6011475E-3,4.4880364E-2,-1.7407909E-1,6.0333397E-2],"categories":[],"categories_nodes":[],"categories_segments":[],"categories_sizes":[],"default_left":[0,1,0,0,0,0,0,0,0,0,0,0,0,0,0],"id":54,"left_children":[1,3,5,-1,7,-1,9,-1,-1,11,13,-1,-1,-1,-1],"loss_changes":[4.319664E-1,1.9907671E0,9.2081463E-1,0E0,5.424109E-1,0E0,6.1917776E-1,0E0,0E0,6.71345E-1,2.4762301E0,0E0,0E0,0E0,0E0],"parents":[2147483647,0,0,1,1,2,2,4,4,6,6,9,9,10,10],"right_children":[2,4,6,-1,8,-1,10,-1,-1,12,14,-1,-1,-1,-1],"split_conditions":[2.3186011E0,-2.658338E0,3.5483406E0,3.026894E-1,1.349727E0,-1.8552221E-1,5.9626026E0,-1.6829373E-1,5.6804147E-2,9.619872E-1,5.0029728E1,-4.6011475E-3,4.4880364E-2,-1.7407909E-1,6.0333397E-2],"split_indices":[3,2,3,0,3,0,2,0,0,0,5,0,0,0,0],"split_type":[0,0,0,0,0,0,0,0,0,0,0,0,0,0,0],"sum_hessian":[2.0557861E2,3.3624284E0,2.0221619E2,1.1428978E0,2.2195306E0,1.4826367E0,2.0073355E2,1.1734496E0,1.046081E0,1.8626807E2,1.4465477E1,1.580531E2,2.8214966E1,7.1545053E0,7.310972E0],"tree_param":{"num_deleted":"0","num_feature":"15","num_nodes":"15","size_leaf_vector":"1"}},{"base_weights":[-5.6706076E-3,3.5478969E-3,-2.678835E-1,3.3183705E-2,-9.8634355E-2,1.6803646E-1,-6.093814E-1,-2.0168538E-1,5.828795E-2,2.2707173E-1,-1.855316E-1,-1.1185076E-1,1.7669672E-1,-2.2707835E-1,-2.676072E-2,4.276495E-2,-1.9983456E-1,4.340092E-2,-1.4126405E-2,1.8956363E-1,-8.814281E-2,-1.6866529E-1,-1.2948098E-2],"categories":[],"categories_nodes":[],"categories_segments":[],"categories_sizes":[],"default_left":[0,0,0,0,0,0,0,0,1,0,0,0,0,0,0,0,0,0,0,0,0,0,0],"id":55,"left_children":[1,3,5,7,9,11,13,15,17,19,21,-1,-1,-1,-1,-1,-1,-1,-1,-1,-1,-1,-1],"loss_changes":[4.9905246E-1,6.09085E-1,1.1461793E0,9.3053174E-1,1.3222274E0,1.0993202E0,2.5082016E-1,2.5364375E0,1.2953113E0,2.2889636E0,1.919974E0,0E0,0E0,0E0,0E0,0E0,0E0,0E0,0E0,0E0,0E0,0E0,0E0],"parents":[2147483647,0,0,1,1,2,2,3,3,4,4,5,5,6,6,7,7,8,8,9,9,10,10],"right_children":[2,4,6,8,10,12,14,16,18,20,22,-1,-1,-1,-1,-1,-1,-1,-1,-1,-1,-1,-1],"split_conditions":[1.7159076E0,3E0,3.9319145E1,1.2627589E1,-1.121134E0,2E0,3E0,4.704216E1,5.030848E1,2E0,-4.5863864E-1,-1.1185076E-1,1.7669672E-1,-2.2707835E-1,-2.676072E-2,4.276495E-2,-1.9983456E-1,4.340092E-2,-1.4126405E-2,1.8956363E-1,-8.814281E-2,-1.6866529E-1,-1.2948098E-2],"split_indices":[0,12,3,3,0,10,9,7,5,11,0,0,0,0,0,0,0,0,0,0,0,0,0],"split_type":[0,0,0,0,0,0,0,0,0,0,0,0,0,0,0,0,0,0,0,0,0,0,0],"sum_hessian":[2.050648E2,1.9905325E2,6.0115585E0,1.5482483E2,4.4228428E1,2.8638346E0,3.1477242E0,1.4271381E1,1.4055344E2,8.975095E0,3.525333E1,1.3034132E0,1.5604213E0,2.0976157E0,1.0501084E0,8.594331E0,5.67705E0,7.703293E1,6.3520515E1,4.930342E0,4.044752E0,8.860709E0,2.6392622E1],"tree_param":{"num_deleted":"0","num_feature":"15","num_nodes":"23","size_leaf_vector":"1"}},